%YAML:1.0
---
opencv_ml_svm:
   format: 3
   svmType: C_SVC
   kernel:
      type: RBF
      gamma: 2.2500000000000003e-03
   C: 5.0000000000000000e-01
   term_criteria: { epsilon:1.1920928955078125e-07, iterations:1000 }
   var_count: 2025
   class_count: 2
   class_labels: !!opencv-matrix
      rows: 2
      cols: 1
      dt: i
      data: [ 0, 1 ]
   sv_total: 27
   support_vectors:
      - [ 0., 0., 0., 0., 0., 0., 0., 0., 0., 0., 0., 0., 0., 0., 0., 0.,
          0., 0., 0., 0., 0., 0., 0., 0., 0., 0., 0., 0., 0., 0., 0., 0.,
          0., 0., 0., 0., 6.89630747e-01, 0., 0., 0., 0., 0., 0., 0.,
          6.89630747e-01, 6.07813179e-01, 5.05032063e-01, 0., 0., 0., 0.,
          0., 0., 6.07813179e-01, 6.40350759e-01, 6.40350759e-01, 0., 0.,
          0., 0., 0., 0., 4.16543692e-01, 6.10228121e-01, 6.10228121e-01,
          0., 0., 9.61950198e-02, 1.23903058e-01, 1.09689230e-04, 0.,
          4.73861694e-01, 4.67431039e-01, 4.19288635e-01, 0.,
          4.98882320e-04, 4.67431039e-01, 4.05034035e-01, 2.89814780e-04,
          0., 4.67431039e-01, 6.40350759e-01, 6.40350759e-01, 0., 0., 0.,
          0., 0., 0., 4.16543692e-01, 6.10228121e-01, 6.10228121e-01, 0.,
          0., 9.61950198e-02, 1.23903058e-01, 1.09689230e-04, 0.,
          4.73861694e-01, 4.67431039e-01, 4.19288635e-01, 0.,
          4.98882320e-04, 4.67431039e-01, 4.05034035e-01, 2.89814780e-04,
          0., 4.67431039e-01, 5.07388294e-01, 5.07388294e-01,
          2.76918411e-01, 1.74456626e-01, 2.79886365e-01, 4.14479256e-01,
          2.57606119e-01, 1.61317229e-01, 1.74396545e-01, 5.07641315e-01,
          3.46987903e-01, 1.66420523e-05, 1.73268968e-03, 5.07641315e-01,
          5.07641315e-01, 7.40868449e-02, 9.16255116e-02, 2.95877069e-01,
          5.13798535e-01, 1.00755662e-01, 0., 1.77587121e-04,
          5.96261322e-01, 5.96261322e-01, 3.28807672e-03, 2.39804314e-04,
          9.40191746e-02, 1.61146849e-01, 1.55190393e-01, 3.70983064e-01,
          4.74735707e-01, 4.74735707e-01, 1.23448245e-01, 1.97353035e-01,
          3.96726549e-01, 3.81116778e-01, 3.86606872e-01, 2.45129620e-03,
          3.98170277e-02, 4.45033461e-01, 4.45033461e-01, 2.14735433e-01,
          7.85360783e-02, 4.45033461e-01, 4.45033461e-01, 5.48306465e-01,
          0., 1.22020310e-02, 2.05748171e-01, 2.12086380e-01,
          5.20988181e-02, 4.92782965e-02, 5.48306465e-01, 5.48306465e-01,
          1.61146849e-01, 1.55190393e-01, 3.70983064e-01, 4.74735707e-01,
          4.74735707e-01, 1.23448245e-01, 1.97353035e-01, 3.96726549e-01,
          3.81116778e-01, 3.86606872e-01, 2.45129620e-03, 3.98170277e-02,
          4.45033461e-01, 4.45033461e-01, 2.14735433e-01, 7.85360783e-02,
          4.45033461e-01, 4.45033461e-01, 5.48306465e-01, 0.,
          1.22020310e-02, 2.05748171e-01, 2.12086380e-01, 5.20988181e-02,
          4.92782965e-02, 5.48306465e-01, 5.48306465e-01, 1.56121720e-02,
          0., 1.97865471e-01, 6.89296544e-01, 6.89296544e-01, 0., 0.,
          3.24479118e-02, 4.91131432e-02, 1.10676154e-01, 0.,
          8.55506808e-02, 6.17741764e-01, 6.17741764e-01, 0., 0.,
          1.83637708e-01, 4.21107501e-01, 2.34027758e-01, 0.,
          1.62785634e-01, 5.01279116e-01, 5.01279116e-01, 0.,
          1.87367927e-02, 3.99414420e-01, 5.01279116e-01, 0., 0., 0., 0.,
          0., 0., 0., 0., 0., 5.79448700e-01, 0., 5.26183471e-02,
          4.03953731e-01, 5.79448700e-01, 0., 0., 0., 3.95910382e-01,
          4.83102620e-01, 1.53293476e-01, 1.95207059e-01, 4.83102620e-01,
          4.83102620e-01, 0., 1.58628344e-03, 3.88511340e-03,
          4.83102620e-01, 0., 0., 0., 0., 0., 0., 0., 0., 0.,
          5.79448700e-01, 0., 5.26183471e-02, 4.03953731e-01,
          5.79448700e-01, 0., 0., 0., 3.95910382e-01, 4.83102620e-01,
          1.53293476e-01, 1.95207059e-01, 4.83102620e-01, 4.83102620e-01,
          0., 1.58628344e-03, 3.88511340e-03, 4.83102620e-01,
          6.79544151e-01, 6.79544151e-01, 0., 0., 4.79246005e-02,
          6.29140390e-03, 0., 0., 2.59459645e-01, 5.32660007e-01,
          5.32660007e-01, 0., 0., 2.68078923e-01, 2.67645389e-01, 0., 0.,
          5.32660007e-01, 4.61028963e-01, 3.80645990e-01, 0.,
          1.74109135e-02, 4.61028963e-01, 4.61028963e-01, 3.12912674e-03,
          0., 4.61028963e-01, 4.13067669e-01, 4.13067669e-01,
          2.30800897e-01, 4.13067669e-01, 2.97874808e-01, 4.13067669e-01,
          2.86953539e-01, 2.49249384e-01, 1.64036274e-01, 4.65011656e-01,
          2.50826925e-01, 3.57648777e-03, 1.05292182e-02, 4.65011656e-01,
          4.65011656e-01, 8.27830955e-02, 2.46010408e-01, 4.65011656e-01,
          3.72158855e-01, 6.75399452e-02, 0., 4.68898118e-02,
          6.30297363e-01, 6.30297363e-01, 1.35036455e-02, 9.68684256e-03,
          2.31557205e-01, 4.13067669e-01, 4.13067669e-01, 2.30800897e-01,
          4.13067669e-01, 2.97874808e-01, 4.13067669e-01, 2.86953539e-01,
          2.49249384e-01, 1.64036274e-01, 4.65011656e-01, 2.50826925e-01,
          3.57648777e-03, 1.05292182e-02, 4.65011656e-01, 4.65011656e-01,
          8.27830955e-02, 2.46010408e-01, 4.65011656e-01, 3.72158855e-01,
          6.75399452e-02, 0., 4.68898118e-02, 6.30297363e-01,
          6.30297363e-01, 1.35036455e-02, 9.68684256e-03, 2.31557205e-01,
          9.08088237e-02, 1.21353135e-01, 4.61559206e-01, 5.21073520e-01,
          5.21073520e-01, 7.48841837e-02, 1.20192036e-01, 3.13229769e-01,
          3.12385052e-01, 4.25532222e-01, 1.73534820e-04, 5.82017824e-02,
          4.48292941e-01, 4.48292941e-01, 7.97233954e-02, 2.88948566e-02,
          4.48292941e-01, 4.48292941e-01, 4.50754374e-01, 0.,
          9.69210360e-03, 4.27410394e-01, 4.50754374e-01, 2.44408846e-03,
          0., 4.50754374e-01, 4.50754374e-01, 0., 0., 2.18120515e-01,
          6.87587380e-01, 6.87587380e-01, 9.26928653e-04, 2.40792613e-03,
          0., 0., 7.96190426e-02, 0., 7.55438283e-02, 6.83660626e-01,
          6.83660626e-01, 1.09560590e-03, 2.84610712e-03, 0.,
          2.15258047e-01, 1.79147854e-01, 0., 6.31226972e-02,
          5.91054618e-01, 5.91054618e-01, 0., 0., 1.57166407e-01,
          4.84383464e-01, 0., 0., 0., 0., 0., 0., 0., 0., 0., 0., 0., 0.,
          0., 0., 0., 0., 0., 0., 7.01476276e-01, 0., 0., 0., 0., 0., 0.,
          0., 7.01476276e-01, 6.07813179e-01, 5.05032063e-01, 0., 0., 0.,
          0., 0., 0., 6.07813179e-01, 5.75687945e-01, 5.75687945e-01, 0.,
          0., 1.22976163e-03, 0., 0., 0., 5.75687945e-01, 5.59880197e-01,
          5.59880197e-01, 0., 0., 1.69136509e-01, 1.59387305e-01, 0., 0.,
          5.59880197e-01, 4.67431039e-01, 4.19288635e-01, 0.,
          4.98882320e-04, 4.67431039e-01, 4.05034035e-01, 2.89814780e-04,
          0., 4.67431039e-01, 4.49096024e-01, 4.49096024e-01, 0.,
          8.98473663e-04, 4.49096024e-01, 4.49096024e-01, 7.57933478e-04,
          0., 4.34469491e-01, 5.50294518e-01, 2.01965734e-01, 0., 0.,
          5.50294518e-01, 5.50294518e-01, 1.78015966e-03, 0.,
          2.12695226e-01, 4.67431039e-01, 4.19288635e-01, 0.,
          4.98882320e-04, 4.67431039e-01, 4.05034035e-01, 2.89814780e-04,
          0., 4.67431039e-01, 4.49096024e-01, 4.49096024e-01, 0.,
          8.98473663e-04, 4.49096024e-01, 4.49096024e-01, 7.57933478e-04,
          0., 4.34469491e-01, 5.50294518e-01, 2.01965734e-01, 0., 0.,
          5.50294518e-01, 5.50294518e-01, 1.78015966e-03, 0.,
          2.12695226e-01, 5.13798535e-01, 1.00755662e-01, 0.,
          1.77587121e-04, 5.96261322e-01, 5.96261322e-01, 3.28807672e-03,
          2.39804314e-04, 9.40191746e-02, 1.38519451e-01, 1.75079331e-02,
          0., 7.89331796e-04, 6.96933389e-01, 6.96933389e-01,
          6.65863568e-04, 0., 4.59915064e-02, 2.45789904e-03, 0., 0., 0.,
          7.04605520e-01, 7.04605520e-01, 4.54417802e-03, 0.,
          1.35731185e-03, 5.48306465e-01, 0., 1.22020310e-02,
          2.05748171e-01, 2.12086380e-01, 5.20988181e-02, 4.92782965e-02,
          5.48306465e-01, 5.48306465e-01, 5.71969509e-01, 0.,
          2.70125712e-03, 4.70341323e-03, 0., 0., 1.13188691e-01,
          5.71969509e-01, 5.71969509e-01, 6.82140052e-01, 0., 0., 0., 0.,
          0., 0., 2.50120342e-01, 6.82140052e-01, 5.48306465e-01, 0.,
          1.22020310e-02, 2.05748171e-01, 2.12086380e-01, 5.20988181e-02,
          4.92782965e-02, 5.48306465e-01, 5.48306465e-01, 5.71969509e-01,
          0., 2.70125712e-03, 4.70341323e-03, 0., 0., 1.13188691e-01,
          5.71969509e-01, 5.71969509e-01, 6.82140052e-01, 0., 0., 0., 0.,
          0., 0., 2.50120342e-01, 6.82140052e-01, 2.34027758e-01, 0.,
          1.62785634e-01, 5.01279116e-01, 5.01279116e-01, 0.,
          1.87367927e-02, 3.99414420e-01, 5.01279116e-01, 3.32063437e-01,
          0., 1.04785629e-01, 4.67400283e-01, 4.67400283e-01, 0.,
          1.52770346e-02, 4.67400283e-01, 4.67400283e-01, 4.91743058e-01,
          0., 3.78945731e-02, 3.48290771e-01, 3.83291543e-01, 0., 0.,
          4.91743058e-01, 4.91743058e-01, 4.83102620e-01, 1.53293476e-01,
          1.95207059e-01, 4.83102620e-01, 4.83102620e-01, 0.,
          1.58628344e-03, 3.88511340e-03, 4.83102620e-01, 4.79435295e-01,
          2.37496153e-01, 1.26963049e-01, 4.79435295e-01, 4.79435295e-01,
          5.90779935e-04, 8.45450850e-04, 5.70388436e-02, 4.79435295e-01,
          4.69427794e-01, 2.04215571e-01, 1.89227626e-01, 4.69427794e-01,
          4.69427794e-01, 1.63522810e-02, 0., 1.89954937e-01,
          4.69427794e-01, 4.83102620e-01, 1.53293476e-01, 1.95207059e-01,
          4.83102620e-01, 4.83102620e-01, 0., 1.58628344e-03,
          3.88511340e-03, 4.83102620e-01, 4.79435295e-01, 2.37496153e-01,
          1.26963049e-01, 4.79435295e-01, 4.79435295e-01, 5.90779935e-04,
          8.45450850e-04, 5.70388436e-02, 4.79435295e-01, 4.69427794e-01,
          2.04215571e-01, 1.89227626e-01, 4.69427794e-01, 4.69427794e-01,
          1.63522810e-02, 0., 1.89954937e-01, 4.69427794e-01,
          4.61028963e-01, 3.80645990e-01, 0., 1.74109135e-02,
          4.61028963e-01, 4.61028963e-01, 3.12912674e-03, 0.,
          4.61028963e-01, 4.78251606e-01, 2.82531500e-01, 4.56828915e-04,
          2.21156664e-02, 4.78251606e-01, 4.78251606e-01, 3.36447335e-03,
          0., 4.78251606e-01, 5.11337578e-01, 1.50948063e-01,
          1.57535523e-02, 1.51850566e-01, 5.11337578e-01, 5.11337578e-01,
          2.15070834e-03, 0., 4.05460358e-01, 3.72158855e-01,
          6.75399452e-02, 0., 4.68898118e-02, 6.30297363e-01,
          6.30297363e-01, 1.35036455e-02, 9.68684256e-03, 2.31557205e-01,
          5.49197532e-02, 4.91515547e-03, 0., 8.26294050e-02,
          7.00770855e-01, 7.00770855e-01, 5.86837670e-03, 0.,
          3.07034962e-02, 0., 0., 0., 1.01317219e-01, 7.00963795e-01,
          7.00963795e-01, 6.08520163e-03, 0., 0., 3.72158855e-01,
          6.75399452e-02, 0., 4.68898118e-02, 6.30297363e-01,
          6.30297363e-01, 1.35036455e-02, 9.68684256e-03, 2.31557205e-01,
          5.49197532e-02, 4.91515547e-03, 0., 8.26294050e-02,
          7.00770855e-01, 7.00770855e-01, 5.86837670e-03, 0.,
          3.07034962e-02, 0., 0., 0., 1.01317219e-01, 7.00963795e-01,
          7.00963795e-01, 6.08520163e-03, 0., 0., 4.50754374e-01, 0.,
          9.69210360e-03, 4.27410394e-01, 4.50754374e-01, 2.44408846e-03,
          0., 4.50754374e-01, 4.50754374e-01, 5.57596684e-01, 0.,
          1.83555298e-02, 1.84083953e-01, 2.59256661e-01, 0., 0.,
          5.20735860e-01, 5.57596684e-01, 5.79167724e-01, 0., 0.,
          1.39430061e-03, 1.04752965e-02, 0., 0., 5.68537116e-01,
          5.79167724e-01, 1.79147854e-01, 0., 6.31226972e-02,
          5.91054618e-01, 5.91054618e-01, 0., 0., 1.57166407e-01,
          4.84383464e-01, 2.77445257e-01, 0., 1.04355462e-01,
          5.35795033e-01, 5.35795033e-01, 0., 0., 2.13434458e-01,
          5.35795033e-01, 3.15176785e-01, 3.16663500e-04, 6.73705935e-02,
          4.76161391e-01, 4.76161391e-01, 0., 0., 4.59542930e-01,
          4.76161391e-01, 7.01476276e-01, 0., 0., 0., 0., 0., 0., 0.,
          7.01476276e-01, 7.02297390e-01, 8.09087008e-02, 0., 0., 0., 0.,
          0., 0., 7.02297390e-01, 6.11211240e-01, 4.96722162e-01, 0., 0.,
          0., 0., 0., 2.44413642e-03, 6.11211240e-01, 5.59880197e-01,
          5.59880197e-01, 0., 0., 1.69136509e-01, 1.59387305e-01, 0., 0.,
          5.59880197e-01, 4.71109867e-01, 3.42538059e-01, 0.,
          5.70758805e-02, 4.71109867e-01, 4.56948668e-01, 8.30085762e-03,
          0., 4.71109867e-01, 4.71757621e-01, 3.15437973e-01, 0.,
          7.42909014e-02, 4.71757621e-01, 4.71757621e-01, 6.81517692e-03,
          5.22559742e-04, 4.71757621e-01, 5.50294518e-01, 2.01965734e-01,
          0., 0., 5.50294518e-01, 5.50294518e-01, 1.78015966e-03, 0.,
          2.12695226e-01, 4.53534573e-01, 7.68540055e-02, 0.,
          1.59910753e-01, 6.05856419e-01, 6.05856419e-01, 2.64029223e-02,
          0., 1.48181751e-01, 2.07190394e-01, 1.25356978e-02, 0.,
          3.16929519e-01, 6.48191392e-01, 6.48191392e-01, 2.06350982e-02,
          0., 9.62770656e-02, 5.50294518e-01, 2.01965734e-01, 0., 0.,
          5.50294518e-01, 5.50294518e-01, 1.78015966e-03, 0.,
          2.12695226e-01, 4.53534573e-01, 7.68540055e-02, 0.,
          1.59910753e-01, 6.05856419e-01, 6.05856419e-01, 2.64029223e-02,
          0., 1.48181751e-01, 2.07190394e-01, 1.25356978e-02, 0.,
          3.16929519e-01, 6.48191392e-01, 6.48191392e-01, 2.06350982e-02,
          0., 9.62770656e-02, 2.45789904e-03, 0., 0., 0., 7.04605520e-01,
          7.04605520e-01, 4.54417802e-03, 0., 1.35731185e-03, 0., 0., 0.,
          0., 7.04615593e-01, 7.04615593e-01, 0., 0., 0., 0., 0., 0., 0.,
          0., 0., 0., 0., 0., 6.82140052e-01, 0., 0., 0., 0., 0., 0.,
          2.50120342e-01, 6.82140052e-01, 0., 0., 0., 0., 0., 0., 0., 0.,
          0., 0., 0., 0., 0., 0., 0., 0., 0., 0., 6.82140052e-01, 0., 0.,
          0., 0., 0., 0., 2.50120342e-01, 6.82140052e-01, 0., 0., 0., 0.,
          0., 0., 0., 0., 0., 0., 0., 0., 0., 0., 0., 0., 0., 0.,
          4.91743058e-01, 0., 3.78945731e-02, 3.48290771e-01,
          3.83291543e-01, 0., 0., 4.91743058e-01, 4.91743058e-01,
          6.09468818e-01, 0., 4.50285105e-03, 3.74917798e-02,
          3.32090072e-02, 0., 0., 4.98479128e-01, 6.09468818e-01,
          3.40574473e-01, 0., 0., 0., 0., 0., 0., 6.62342966e-01,
          6.62342966e-01, 4.69427794e-01, 2.04215571e-01, 1.89227626e-01,
          4.69427794e-01, 4.69427794e-01, 1.63522810e-02, 0.,
          1.89954937e-01, 4.69427794e-01, 3.73468846e-01, 2.62053639e-01,
          3.06657881e-01, 3.37381631e-01, 3.73468846e-01, 3.73468846e-01,
          1.49453700e-01, 3.73468846e-01, 3.73468846e-01, 7.21289888e-02,
          7.86114205e-03, 2.35834252e-02, 0., 1.12994827e-01,
          4.94084269e-01, 4.94084269e-01, 4.94084269e-01, 4.94084269e-01,
          4.69427794e-01, 2.04215571e-01, 1.89227626e-01, 4.69427794e-01,
          4.69427794e-01, 1.63522810e-02, 0., 1.89954937e-01,
          4.69427794e-01, 3.73468846e-01, 2.62053639e-01, 3.06657881e-01,
          3.37381631e-01, 3.73468846e-01, 3.73468846e-01, 1.49453700e-01,
          3.73468846e-01, 3.73468846e-01, 7.21289888e-02, 7.86114205e-03,
          2.35834252e-02, 0., 1.12994827e-01, 4.94084269e-01,
          4.94084269e-01, 4.94084269e-01, 4.94084269e-01, 5.11337578e-01,
          1.50948063e-01, 1.57535523e-02, 1.51850566e-01, 5.11337578e-01,
          5.11337578e-01, 2.15070834e-03, 0., 4.05460358e-01,
          2.57075489e-01, 1.26575261e-01, 9.84146520e-02, 7.41315335e-02,
          6.59000576e-01, 6.59000576e-01, 1.02234282e-01, 2.09767092e-02,
          1.29133165e-01, 0., 3.35372402e-03, 1.00611718e-02, 0.,
          5.11645377e-01, 5.72116137e-01, 5.72116137e-01, 2.73716480e-01,
          5.32826483e-02, 0., 0., 0., 1.01317219e-01, 7.00963795e-01,
          7.00963795e-01, 6.08520163e-03, 0., 0., 0., 0., 0.,
          6.47673383e-02, 7.03130960e-01, 7.03130960e-01, 0., 0., 0., 0.,
          0., 0., 0., 9.85189855e-01, 0., 0., 0., 0., 0., 0., 0.,
          1.01317219e-01, 7.00963795e-01, 7.00963795e-01, 6.08520163e-03,
          0., 0., 0., 0., 0., 6.47673383e-02, 7.03130960e-01,
          7.03130960e-01, 0., 0., 0., 0., 0., 0., 0., 9.85189855e-01, 0.,
          0., 0., 0., 5.79167724e-01, 0., 0., 1.39430061e-03,
          1.04752965e-02, 0., 0., 5.68537116e-01, 5.79167724e-01,
          5.83026528e-01, 0., 0., 0., 0., 0., 0., 5.60658872e-01,
          5.83026528e-01, 0., 0., 0., 0., 0., 0., 0., 0., 0.,
          3.15176785e-01, 3.16663500e-04, 6.73705935e-02, 4.76161391e-01,
          4.76161391e-01, 0., 0., 4.59542930e-01, 4.76161391e-01,
          3.31265092e-01, 2.39503407e-03, 4.76593189e-02, 5.03628016e-01,
          3.49332005e-01, 0., 0., 5.03628016e-01, 5.03628016e-01,
          5.32789707e-01, 0., 7.93303829e-03, 7.67745003e-02,
          8.97867084e-02, 0., 0., 5.90010524e-01, 5.90010524e-01,
          6.11211240e-01, 4.96722162e-01, 0., 0., 0., 0., 0.,
          2.44413642e-03, 6.11211240e-01, 5.90734601e-01, 5.43647170e-01,
          0., 3.14944104e-04, 2.28471793e-02, 7.54900603e-03, 0.,
          5.95445791e-03, 5.90734601e-01, 6.25370622e-01, 3.42285961e-01,
          0., 2.07851771e-02, 2.87235558e-01, 1.07159793e-01, 0., 0.,
          6.25370622e-01, 4.71757621e-01, 3.15437973e-01, 0.,
          7.42909014e-02, 4.71757621e-01, 4.71757621e-01, 6.81517692e-03,
          5.22559742e-04, 4.71757621e-01, 4.79594707e-01, 2.72426397e-01,
          0., 3.04782800e-02, 4.79594707e-01, 4.79594707e-01,
          3.37790372e-03, 2.99040601e-03, 4.79594707e-01, 5.21772087e-01,
          1.46184698e-01, 0., 1.04231216e-01, 5.21772087e-01,
          5.21772087e-01, 4.88263275e-03, 0., 3.81828249e-01,
          2.07190394e-01, 1.25356978e-02, 0., 3.16929519e-01,
          6.48191392e-01, 6.48191392e-01, 2.06350982e-02, 0.,
          9.62770656e-02, 2.16710251e-02, 4.35832451e-04, 0.,
          3.83420214e-02, 7.03820765e-01, 7.03820765e-01, 1.39679592e-02,
          0., 1.05754426e-02, 0., 0., 0., 5.83344959e-02, 7.03400075e-01,
          7.03400075e-01, 5.66018280e-03, 0., 0., 2.07190394e-01,
          1.25356978e-02, 0., 3.16929519e-01, 6.48191392e-01,
          6.48191392e-01, 2.06350982e-02, 0., 9.62770656e-02,
          2.16710251e-02, 4.35832451e-04, 0., 3.83420214e-02,
          7.03820765e-01, 7.03820765e-01, 1.39679592e-02, 0.,
          1.05754426e-02, 0., 0., 0., 5.83344959e-02, 7.03400075e-01,
          7.03400075e-01, 5.66018280e-03, 0., 0., 0., 0., 0., 0., 0., 0.,
          0., 0., 0., 0., 0., 0., 0., 0., 0., 0., 0., 0., 0., 0., 0., 0.,
          0., 0., 0., 0., 0., 0., 0., 0., 0., 0., 0., 0., 0., 0., 0., 0.,
          0., 0., 0., 0., 0., 0., 0., 0., 0., 0., 0., 0., 0., 0., 0., 0.,
          0., 0., 0., 0., 0., 0., 0., 0., 0., 0., 0., 0., 0., 0., 0., 0.,
          0., 0., 0., 0., 0., 0., 0., 0., 0., 0., 0., 3.40574473e-01, 0.,
          0., 0., 0., 0., 0., 6.62342966e-01, 6.62342966e-01, 0., 0., 0.,
          0., 0., 0., 0., 0., 0., 0., 0., 0., 0., 0., 0., 0., 0., 0.,
          7.21289888e-02, 7.86114205e-03, 2.35834252e-02, 0.,
          1.12994827e-01, 4.94084269e-01, 4.94084269e-01, 4.94084269e-01,
          4.94084269e-01, 0., 0., 0., 0., 0., 0., 0., 0., 0., 0., 0., 0.,
          0., 0., 0., 0., 0., 0., 7.21289888e-02, 7.86114205e-03,
          2.35834252e-02, 0., 1.12994827e-01, 4.94084269e-01,
          4.94084269e-01, 4.94084269e-01, 4.94084269e-01, 0., 0., 0., 0.,
          0., 0., 0., 0., 0., 0., 0., 0., 0., 0., 0., 0., 0., 0., 0.,
          3.35372402e-03, 1.00611718e-02, 0., 5.11645377e-01,
          5.72116137e-01, 5.72116137e-01, 2.73716480e-01, 5.32826483e-02,
          0., 0., 0., 0., 0., 0., 0., 0., 0., 0., 0., 0., 0., 0., 0., 0.,
          0., 0., 0., 0., 0., 0., 9.85189855e-01, 0., 0., 0., 0., 0., 0.,
          0., 0., 0., 0., 0., 0., 0., 0., 0., 0., 0., 0., 0., 0., 0., 0.,
          0., 0., 0., 0., 9.85189855e-01, 0., 0., 0., 0., 0., 0., 0., 0.,
          0., 0., 0., 0., 0., 0., 0., 0., 0., 0., 0., 0., 0., 0., 0., 0.,
          0., 0., 0., 0., 0., 0., 0., 0., 0., 0., 0., 0., 0., 0., 0., 0.,
          0., 0., 0., 0., 0., 0., 0., 0., 0., 5.32789707e-01, 0.,
          7.93303829e-03, 7.67745003e-02, 8.97867084e-02, 0., 0.,
          5.90010524e-01, 5.90010524e-01, 5.75688422e-01, 0., 0., 0., 0.,
          0., 0., 5.75688422e-01, 5.75688422e-01, 0., 0., 0., 0., 0., 0.,
          0., 0., 0., 6.25370622e-01, 3.42285961e-01, 0., 2.07851771e-02,
          2.87235558e-01, 1.07159793e-01, 0., 0., 6.25370622e-01,
          5.20385802e-01, 3.84346485e-01, 0., 5.39289340e-02,
          5.02661586e-01, 2.23383531e-01, 8.54371465e-04, 0.,
          5.20385802e-01, 5.09550035e-01, 3.60679477e-01, 0.,
          5.81588298e-02, 5.09550035e-01, 2.87254483e-01, 4.71500127e-04,
          0., 5.09550035e-01, 5.21772087e-01, 1.46184698e-01, 0.,
          1.04231216e-01, 5.21772087e-01, 5.21772087e-01, 4.88263275e-03,
          0., 3.81828249e-01, 5.15001714e-01, 7.48753473e-02, 0.,
          2.43022949e-01, 5.24879694e-01, 5.24879694e-01, 4.44454746e-03,
          0., 3.37413281e-01, 3.86881709e-01, 5.85881472e-02, 0.,
          2.21190974e-01, 5.98359525e-01, 5.98359525e-01, 3.56797734e-03,
          0., 2.75516033e-01, 0., 0., 0., 5.83344959e-02, 7.03400075e-01,
          7.03400075e-01, 5.66018280e-03, 0., 0., 0., 0., 0.,
          8.34034905e-02, 9.06359136e-01, 4.03127313e-01, 1.50986400e-03,
          0., 0., 0., 0., 0., 0., 9.95024860e-01, 0., 0., 0., 0., 0., 0.,
          0., 5.83344959e-02, 7.03400075e-01, 7.03400075e-01,
          5.66018280e-03, 0., 0., 0., 0., 0., 8.34034905e-02,
          9.06359136e-01, 4.03127313e-01, 1.50986400e-03, 0., 0., 0., 0.,
          0., 0., 9.95024860e-01, 0., 0., 0., 0., 0., 0., 0., 0., 0., 0.,
          0., 0., 0., 0., 0., 0., 0., 0., 0., 0., 0., 0., 0., 0., 0., 0.,
          0., 0., 0., 0., 0., 0., 0., 0., 0., 0., 0., 0., 0., 0., 0., 0.,
          0., 0., 0., 0., 0., 0., 0., 0., 0., 0., 0., 0., 0., 0., 0., 0.,
          0., 0., 0., 0., 0., 0., 0., 0., 0., 0., 0., 0., 0., 0., 0., 0.,
          0., 0., 0., 0., 0., 0., 0., 0., 0., 0., 0., 0., 0., 0., 0., 0.,
          0., 0., 0., 0., 0., 0., 0., 0., 0., 0., 0., 0., 0., 0., 0., 0.,
          0., 0., 0., 0., 0., 0., 0., 0., 0., 0., 0., 0., 0., 0., 0., 0.,
          0., 0., 0., 0., 0., 0., 0., 0., 0., 0., 0., 0., 0., 0., 0., 0.,
          0., 0., 0., 0., 0., 0., 0., 0., 0., 0., 0., 0., 0., 0., 0., 0.,
          0., 0., 0., 0., 0., 0., 0., 0., 0., 0., 0., 0., 0., 0., 0., 0.,
          0., 0., 0., 0., 0., 0., 0., 0., 0., 0., 0., 0., 0., 0., 0., 0.,
          0., 0., 0., 0., 0., 0., 0., 0., 0., 0., 0., 0., 0., 0., 0., 0.,
          0., 0., 0., 0., 0., 0., 0., 0., 0., 0., 0., 0., 0., 0., 0., 0.,
          0., 0., 0., 0., 0., 0., 0., 0., 0., 0., 0., 0., 0., 0., 0., 0.,
          0., 0., 0., 0., 0., 0., 0., 0., 0., 0., 0., 0., 0., 0., 0., 0.,
          0., 0., 0., 0., 0., 0., 0., 0., 0., 0., 0., 0., 0., 0., 0., 0.,
          0., 0., 0., 0., 0., 0., 0., 0., 0., 0., 0., 0., 0., 0., 0., 0.,
          0., 0., 0., 0., 0., 0., 0., 0., 0., 0., 0., 0., 0., 0., 0., 0.,
          0., 0., 0. ]
      - [ 0., 0., 0., 0., 0., 0., 0., 0., 0., 7.03887701e-01, 0., 0., 0.,
          0., 0., 0., 0., 7.03887701e-01, 6.04391396e-01, 5.13212800e-01,
          0., 0., 0., 0., 0., 0., 6.04391396e-01, 5.49137115e-01,
          5.49137115e-01, 1.61942355e-02, 0., 2.95122057e-01,
          5.00232577e-02, 0., 0., 5.49137115e-01, 5.07919133e-01,
          3.73412251e-01, 0., 0., 5.07919133e-01, 2.85360605e-01,
          1.06972968e-02, 0., 5.07919133e-01, 4.50318962e-01,
          4.50318962e-01, 0., 0., 4.50318962e-01, 4.29324448e-01,
          5.81170851e-03, 0., 4.50318962e-01, 3.60439986e-01,
          3.60439986e-01, 2.88359880e-01, 6.18763529e-02, 3.60439986e-01,
          3.60439986e-01, 3.60439986e-01, 3.60439986e-01, 3.60439986e-01,
          5.39149165e-01, 6.92930147e-02, 0., 0., 5.60511410e-01,
          5.60511410e-01, 5.42184897e-02, 1.96958669e-02, 2.59317845e-01,
          2.64848351e-01, 7.76443407e-02, 0., 0., 6.67489290e-01,
          6.67489290e-01, 3.22884806e-02, 0., 1.58229470e-01,
          3.60439986e-01, 3.60439986e-01, 2.88359880e-01, 6.18763529e-02,
          3.60439986e-01, 3.60439986e-01, 3.60439986e-01, 3.60439986e-01,
          3.60439986e-01, 5.39149165e-01, 6.92930147e-02, 0., 0.,
          5.60511410e-01, 5.60511410e-01, 5.42184897e-02, 1.96958669e-02,
          2.59317845e-01, 2.64848351e-01, 7.76443407e-02, 0., 0.,
          6.67489290e-01, 6.67489290e-01, 3.22884806e-02, 0.,
          1.58229470e-01, 7.20508222e-04, 8.35098550e-02, 4.43421662e-01,
          4.43421662e-01, 6.95459917e-02, 2.54145060e-02, 4.43421662e-01,
          4.43421662e-01, 4.43421662e-01, 1.42284304e-01, 1.24562054e-03,
          1.76554546e-02, 9.44224820e-02, 2.60094553e-01, 4.95860167e-02,
          2.83283055e-01, 6.37887299e-01, 6.37887299e-01, 6.50462329e-01,
          0., 0., 0., 1.87315017e-01, 2.82379985e-02, 0., 3.33794981e-01,
          6.50462329e-01, 6.10298617e-03, 1.68750677e-02, 6.09788954e-01,
          6.09788954e-01, 1.20491490e-01, 0., 3.73370983e-02,
          3.95217061e-01, 2.78918564e-01, 3.06177169e-01, 1.97308953e-04,
          1.12278052e-01, 4.71401900e-01, 4.71401900e-01, 0.,
          7.86177255e-03, 4.71401900e-01, 4.71401900e-01, 4.99434203e-01,
          0., 2.73867883e-02, 3.82558852e-01, 3.15605879e-01, 0., 0.,
          4.99434203e-01, 4.99434203e-01, 6.10298617e-03, 1.68750677e-02,
          6.09788954e-01, 6.09788954e-01, 1.20491490e-01, 0.,
          3.73370983e-02, 3.95217061e-01, 2.78918564e-01, 3.06177169e-01,
          1.97308953e-04, 1.12278052e-01, 4.71401900e-01, 4.71401900e-01,
          0., 7.86177255e-03, 4.71401900e-01, 4.71401900e-01,
          4.99434203e-01, 0., 2.73867883e-02, 3.82558852e-01,
          3.15605879e-01, 0., 0., 4.99434203e-01, 4.99434203e-01,
          2.69450044e-04, 0., 3.18630636e-01, 6.67759955e-01,
          6.67759955e-01, 0., 0., 5.50137949e-04, 1.02849817e-03,
          7.19962418e-02, 0., 1.29440755e-01, 6.81704581e-01,
          6.81704581e-01, 0., 0., 7.35871419e-02, 1.90785542e-01,
          2.24757060e-01, 0., 1.18309587e-01, 5.12435019e-01,
          5.12435019e-01, 2.93855984e-02, 0., 3.76479536e-01,
          5.12435019e-01, 0., 0., 0., 0., 0., 0., 0., 0., 0., 0., 0.,
          7.20811859e-02, 5.05671382e-01, 8.45244586e-01, 0., 0., 0., 0.,
          4.44768101e-01, 4.44768101e-01, 4.66943309e-02, 4.44768101e-01,
          4.44768101e-01, 6.54487982e-02, 0., 0., 4.44768101e-01, 0., 0.,
          0., 0., 0., 0., 0., 0., 0., 0., 0., 7.20811859e-02,
          5.05671382e-01, 8.45244586e-01, 0., 0., 0., 0., 4.44768101e-01,
          4.44768101e-01, 4.66943309e-02, 4.44768101e-01, 4.44768101e-01,
          6.54487982e-02, 0., 0., 4.44768101e-01, 5.75688183e-01,
          5.75688183e-01, 7.02083285e-04, 0., 6.02354121e-04, 0., 0., 0.,
          5.75688183e-01, 5.47140658e-01, 5.47140658e-01, 0., 0.,
          2.71278679e-01, 1.51132375e-01, 3.77360894e-03, 0.,
          5.47140658e-01, 4.46094811e-01, 4.46094811e-01, 0., 0.,
          4.46094811e-01, 4.46094811e-01, 2.32623722e-02, 0.,
          4.46094811e-01, 4.18738604e-01, 4.18738604e-01, 1.72710925e-01,
          5.99198043e-02, 4.18738604e-01, 4.18738604e-01, 2.44173720e-01,
          1.61451742e-01, 4.18738604e-01, 4.78604317e-01, 2.74452299e-01,
          0., 0., 4.78604317e-01, 4.78604317e-01, 5.94667941e-02,
          1.05361221e-02, 4.78604317e-01, 4.95323867e-01, 1.06458426e-01,
          0., 0., 4.95323867e-01, 4.95323867e-01, 4.80246134e-02,
          5.49977878e-03, 4.95323867e-01, 4.18738604e-01, 4.18738604e-01,
          1.72710925e-01, 5.99198043e-02, 4.18738604e-01, 4.18738604e-01,
          2.44173720e-01, 1.61451742e-01, 4.18738604e-01, 4.78604317e-01,
          2.74452299e-01, 0., 0., 4.78604317e-01, 4.78604317e-01,
          5.94667941e-02, 1.05361221e-02, 4.78604317e-01, 4.95323867e-01,
          1.06458426e-01, 0., 0., 4.95323867e-01, 4.95323867e-01,
          4.80246134e-02, 5.49977878e-03, 4.95323867e-01, 3.98842663e-01,
          1.16480321e-01, 3.98842663e-01, 3.98842663e-01, 3.98842663e-01,
          2.69276798e-01, 2.01742396e-01, 2.71773279e-01, 3.98842663e-01,
          5.64873755e-01, 0., 0., 1.10480748e-01, 5.64873755e-01,
          1.55919358e-01, 9.47640743e-03, 2.24850606e-02, 5.64873755e-01,
          5.73680818e-01, 0., 0., 2.51271855e-02, 5.73680818e-01,
          7.52857700e-02, 9.09344308e-05, 2.53607035e-02, 5.73680818e-01,
          9.10935632e-04, 5.23438491e-03, 1.24837562e-01, 6.96339905e-01,
          6.96339905e-01, 8.75034854e-02, 0., 0., 9.10935632e-04,
          3.65266227e-03, 0., 0., 1.56849146e-01, 9.82451856e-01,
          1.89672671e-02, 0., 0., 3.65266227e-03, 1.12865735e-02, 0., 0.,
          7.94012696e-02, 9.69370782e-01, 2.09977672e-01, 0., 0.,
          1.12865735e-02, 6.04391396e-01, 5.13212800e-01, 0., 0., 0., 0.,
          0., 0., 6.04391396e-01, 6.22915030e-01, 4.66620207e-01, 0., 0.,
          0., 0., 0., 0., 6.22915030e-01, 6.86381340e-01, 2.15964586e-01,
          0., 0., 6.53348118e-02, 0., 0., 0., 6.86381340e-01,
          4.50318962e-01, 4.50318962e-01, 0., 0., 4.50318962e-01,
          4.29324448e-01, 5.81170851e-03, 0., 4.50318962e-01,
          4.75905329e-01, 2.96767175e-01, 0., 0., 4.75905329e-01,
          4.75905329e-01, 3.51031311e-02, 0., 4.75905329e-01,
          5.04904270e-01, 8.30187872e-02, 0., 0., 5.04904270e-01,
          4.72462922e-01, 7.67857162e-03, 0., 5.04904270e-01,
          2.64848351e-01, 7.76443407e-02, 0., 0., 6.67489290e-01,
          6.67489290e-01, 3.22884806e-02, 0., 1.58229470e-01,
          5.07557355e-02, 0., 0., 0., 7.02349126e-01, 7.02349126e-01,
          4.12996039e-02, 0., 4.60299700e-02, 0., 0., 0., 0.,
          7.44644582e-01, 6.61609948e-01, 1.85523927e-02, 0., 0.,
          2.64848351e-01, 7.76443407e-02, 0., 0., 6.67489290e-01,
          6.67489290e-01, 3.22884806e-02, 0., 1.58229470e-01,
          5.07557355e-02, 0., 0., 0., 7.02349126e-01, 7.02349126e-01,
          4.12996039e-02, 0., 4.60299700e-02, 0., 0., 0., 0.,
          7.44644582e-01, 6.61609948e-01, 1.85523927e-02, 0., 0.,
          6.50462329e-01, 0., 0., 0., 1.87315017e-01, 2.82379985e-02, 0.,
          3.33794981e-01, 6.50462329e-01, 0., 0., 0., 0., 0., 0., 0., 0.,
          0., 0., 0., 0., 0., 0., 0., 0., 0., 0., 4.99434203e-01, 0.,
          2.73867883e-02, 3.82558852e-01, 3.15605879e-01, 0., 0.,
          4.99434203e-01, 4.99434203e-01, 5.75549304e-01, 0.,
          2.62097386e-03, 1.83869246e-02, 1.17037343e-02, 0., 0.,
          5.75549304e-01, 5.75549304e-01, 6.20842218e-01, 0., 0., 0., 0.,
          0., 0., 4.72134531e-01, 6.20842218e-01, 4.99434203e-01, 0.,
          2.73867883e-02, 3.82558852e-01, 3.15605879e-01, 0., 0.,
          4.99434203e-01, 4.99434203e-01, 5.75549304e-01, 0.,
          2.62097386e-03, 1.83869246e-02, 1.17037343e-02, 0., 0.,
          5.75549304e-01, 5.75549304e-01, 6.20842218e-01, 0., 0., 0., 0.,
          0., 0., 4.72134531e-01, 6.20842218e-01, 2.24757060e-01, 0.,
          1.18309587e-01, 5.12435019e-01, 5.12435019e-01, 2.93855984e-02,
          0., 3.76479536e-01, 5.12435019e-01, 4.45427418e-01, 0.,
          5.69837913e-02, 4.45427418e-01, 4.45427418e-01, 1.66019797e-02,
          0., 4.45427418e-01, 4.45427418e-01, 5.38375556e-01, 0.,
          2.45227991e-03, 2.22968146e-01, 5.38375556e-01, 7.50654290e-05,
          0., 2.74514169e-01, 5.38375556e-01, 4.44768101e-01,
          4.44768101e-01, 4.66943309e-02, 4.44768101e-01, 4.44768101e-01,
          6.54487982e-02, 0., 0., 4.44768101e-01, 4.45562601e-01,
          4.45562601e-01, 3.08242850e-02, 4.45562601e-01, 4.45562601e-01,
          4.42968085e-02, 2.60538468e-03, 0., 4.45562601e-01,
          4.62490857e-01, 4.62490857e-01, 1.28496881e-03, 2.10656554e-01,
          4.62490857e-01, 3.08198333e-01, 1.92665849e-02, 7.35053839e-03,
          4.62490857e-01, 4.44768101e-01, 4.44768101e-01, 4.66943309e-02,
          4.44768101e-01, 4.44768101e-01, 6.54487982e-02, 0., 0.,
          4.44768101e-01, 4.45562601e-01, 4.45562601e-01, 3.08242850e-02,
          4.45562601e-01, 4.45562601e-01, 4.42968085e-02, 2.60538468e-03,
          0., 4.45562601e-01, 4.62490857e-01, 4.62490857e-01,
          1.28496881e-03, 2.10656554e-01, 4.62490857e-01, 3.08198333e-01,
          1.92665849e-02, 7.35053839e-03, 4.62490857e-01, 4.46094811e-01,
          4.46094811e-01, 0., 0., 4.46094811e-01, 4.46094811e-01,
          2.32623722e-02, 0., 4.46094811e-01, 4.56989825e-01,
          4.56989825e-01, 0., 0., 4.56989825e-01, 4.56989825e-01,
          1.03285879e-01, 0., 3.86534274e-01, 4.73170817e-01,
          2.24417865e-01, 0., 0., 5.77849805e-01, 5.77849805e-01,
          1.48912862e-01, 0., 1.73147917e-01, 4.95323867e-01,
          1.06458426e-01, 0., 0., 4.95323867e-01, 4.95323867e-01,
          4.80246134e-02, 5.49977878e-03, 4.95323867e-01, 4.89056885e-01,
          1.20426361e-02, 0., 0., 4.89056885e-01, 4.89056885e-01,
          9.61835310e-02, 1.70330763e-01, 4.89056885e-01, 4.98314202e-01,
          0., 0., 0., 4.98314202e-01, 4.98314202e-01, 3.39534096e-02,
          2.45380662e-02, 4.98314202e-01, 4.95323867e-01, 1.06458426e-01,
          0., 0., 4.95323867e-01, 4.95323867e-01, 4.80246134e-02,
          5.49977878e-03, 4.95323867e-01, 4.89056885e-01, 1.20426361e-02,
          0., 0., 4.89056885e-01, 4.89056885e-01, 9.61835310e-02,
          1.70330763e-01, 4.89056885e-01, 4.98314202e-01, 0., 0., 0.,
          4.98314202e-01, 4.98314202e-01, 3.39534096e-02, 2.45380662e-02,
          4.98314202e-01, 5.73680818e-01, 0., 0., 2.51271855e-02,
          5.73680818e-01, 7.52857700e-02, 9.09344308e-05, 2.53607035e-02,
          5.73680818e-01, 4.85691130e-01, 0., 1.16828773e-02,
          4.57179725e-01, 4.85691130e-01, 2.50979662e-02, 0.,
          2.78714567e-01, 4.85691130e-01, 5.74769616e-01, 0.,
          1.05388055e-03, 5.48483282e-02, 5.74769616e-01, 0., 0.,
          1.30736157e-02, 5.74769616e-01, 1.12865735e-02, 0., 0.,
          7.94012696e-02, 9.69370782e-01, 2.09977672e-01, 0., 0.,
          1.12865735e-02, 1.29778415e-01, 0., 2.66719051e-02,
          6.90698922e-01, 6.90698922e-01, 5.72984330e-02, 0., 0.,
          1.34677589e-01, 1.89095527e-01, 0., 1.86470407e-03,
          9.70469564e-02, 9.53421414e-01, 0., 0., 0., 1.90518349e-01,
          6.86381340e-01, 2.15964586e-01, 0., 0., 6.53348118e-02, 0., 0.,
          0., 6.86381340e-01, 5.30385137e-01, 5.15148342e-01, 0., 0.,
          4.08257872e-01, 5.84370364e-03, 0., 0., 5.30385137e-01,
          5.84075511e-01, 1.87242366e-02, 0., 3.48440051e-04,
          5.51668942e-01, 8.47939551e-02, 0., 0., 5.84075511e-01,
          5.04904270e-01, 8.30187872e-02, 0., 0., 5.04904270e-01,
          4.72462922e-01, 7.67857162e-03, 0., 5.04904270e-01,
          5.03567159e-01, 1.53230458e-01, 0., 0., 5.03567159e-01,
          5.03567159e-01, 0., 0., 4.59076643e-01, 5.29133260e-01,
          7.62817264e-03, 0., 1.21444126e-03, 6.19394422e-01,
          3.11080962e-01, 0., 0., 4.83066410e-01, 0., 0., 0., 0.,
          7.44644582e-01, 6.61609948e-01, 1.85523927e-02, 0., 0., 0., 0.,
          0., 0., 7.04615593e-01, 7.04615593e-01, 0., 0., 0., 0., 0., 0.,
          0., 9.94002640e-01, 4.52046767e-02, 0., 0., 0., 0., 0., 0., 0.,
          7.44644582e-01, 6.61609948e-01, 1.85523927e-02, 0., 0., 0., 0.,
          0., 0., 7.04615593e-01, 7.04615593e-01, 0., 0., 0., 0., 0., 0.,
          0., 9.94002640e-01, 4.52046767e-02, 0., 0., 0., 0., 0., 0., 0.,
          0., 0., 0., 0., 0., 0., 0., 0., 0., 0., 0., 0., 0., 0., 0., 0.,
          0., 0., 0., 0., 0., 0., 0., 6.20842218e-01, 0., 0., 0., 0., 0.,
          0., 4.72134531e-01, 6.20842218e-01, 7.04615593e-01, 0., 0., 0.,
          0., 0., 0., 0., 7.04615593e-01, 0., 0., 0., 0., 0., 0., 0., 0.,
          0., 6.20842218e-01, 0., 0., 0., 0., 0., 0., 4.72134531e-01,
          6.20842218e-01, 7.04615593e-01, 0., 0., 0., 0., 0., 0., 0.,
          7.04615593e-01, 0., 0., 0., 0., 0., 0., 0., 0., 0.,
          5.38375556e-01, 0., 2.45227991e-03, 2.22968146e-01,
          5.38375556e-01, 7.50654290e-05, 0., 2.74514169e-01,
          5.38375556e-01, 5.23105562e-01, 8.91095102e-02, 4.54864316e-02,
          1.88727170e-01, 5.23105562e-01, 2.74030454e-02, 4.70264368e-02,
          3.53931725e-01, 5.23105562e-01, 4.69947338e-01, 3.93040106e-02,
          4.95689623e-02, 2.66920477e-02, 6.42325059e-02, 3.21035743e-01,
          4.69947338e-01, 4.69947338e-01, 4.69947338e-01, 4.62490857e-01,
          4.62490857e-01, 1.28496881e-03, 2.10656554e-01, 4.62490857e-01,
          3.08198333e-01, 1.92665849e-02, 7.35053839e-03, 4.62490857e-01,
          4.17562217e-01, 3.82949978e-01, 1.25266343e-01, 2.42985606e-01,
          4.17562217e-01, 4.17562217e-01, 2.55182803e-01, 1.09056473e-01,
          4.17562217e-01, 9.91164446e-02, 1.22139968e-01, 1.17564671e-01,
          3.30630839e-02, 4.78614420e-01, 4.78614420e-01, 4.78614420e-01,
          4.78614420e-01, 1.98180586e-01, 4.62490857e-01, 4.62490857e-01,
          1.28496881e-03, 2.10656554e-01, 4.62490857e-01, 3.08198333e-01,
          1.92665849e-02, 7.35053839e-03, 4.62490857e-01, 4.17562217e-01,
          3.82949978e-01, 1.25266343e-01, 2.42985606e-01, 4.17562217e-01,
          4.17562217e-01, 2.55182803e-01, 1.09056473e-01, 4.17562217e-01,
          9.91164446e-02, 1.22139968e-01, 1.17564671e-01, 3.30630839e-02,
          4.78614420e-01, 4.78614420e-01, 4.78614420e-01, 4.78614420e-01,
          1.98180586e-01, 4.73170817e-01, 2.24417865e-01, 0., 0.,
          5.77849805e-01, 5.77849805e-01, 1.48912862e-01, 0.,
          1.73147917e-01, 2.28662804e-01, 1.93808153e-02, 0., 0.,
          6.72540367e-01, 6.72540367e-01, 1.43305242e-01, 1.71443149e-02,
          1.23175941e-01, 2.38163415e-02, 0., 0., 0., 5.52836895e-01,
          5.52836895e-01, 5.52836895e-01, 2.76512176e-01, 2.38163415e-02,
          4.98314202e-01, 0., 0., 0., 4.98314202e-01, 4.98314202e-01,
          3.39534096e-02, 2.45380662e-02, 4.98314202e-01, 7.04615593e-01,
          0., 0., 0., 0., 0., 0., 0., 7.04615593e-01, 7.04615593e-01, 0.,
          0., 0., 0., 0., 0., 0., 7.04615593e-01, 4.98314202e-01, 0., 0.,
          0., 4.98314202e-01, 4.98314202e-01, 3.39534096e-02,
          2.45380662e-02, 4.98314202e-01, 7.04615593e-01, 0., 0., 0., 0.,
          0., 0., 0., 7.04615593e-01, 7.04615593e-01, 0., 0., 0., 0., 0.,
          0., 0., 7.04615593e-01, 5.74769616e-01, 0., 1.05388055e-03,
          5.48483282e-02, 5.74769616e-01, 0., 0., 1.30736157e-02,
          5.74769616e-01, 5.24797142e-01, 0., 9.16960277e-03,
          2.07474947e-01, 5.24797142e-01, 0., 0., 3.54108304e-01,
          5.24797142e-01, 4.79488611e-01, 0., 1.63424704e-02,
          2.74420291e-01, 4.79488611e-01, 0., 0., 4.79488611e-01,
          4.79488611e-01, 1.89095527e-01, 0., 1.86470407e-03,
          9.70469564e-02, 9.53421414e-01, 0., 0., 0., 1.90518349e-01,
          1.53139710e-01, 0., 3.49527411e-02, 6.72262490e-01,
          6.72262490e-01, 0., 0., 5.55804670e-02, 2.48299003e-01,
          2.58478880e-01, 0., 8.01485851e-02, 5.55281818e-01,
          5.55281818e-01, 0., 0., 1.65919930e-01, 5.26321948e-01,
          5.84075511e-01, 1.87242366e-02, 0., 3.48440051e-04,
          5.51668942e-01, 8.47939551e-02, 0., 0., 5.84075511e-01,
          5.44160545e-01, 2.90249467e-01, 0., 3.37166653e-04,
          5.44160545e-01, 1.48286223e-01, 0., 0., 5.44160545e-01,
          4.56832886e-01, 4.56832886e-01, 0., 0., 4.56832886e-01,
          4.00706440e-01, 9.28336103e-03, 0., 4.56832886e-01,
          5.29133260e-01, 7.62817264e-03, 0., 1.21444126e-03,
          6.19394422e-01, 3.11080962e-01, 0., 0., 4.83066410e-01,
          4.98980761e-01, 4.91670221e-02, 0., 1.42206764e-03,
          5.50701559e-01, 5.50701559e-01, 0., 0., 3.69533509e-01,
          4.07429695e-01, 6.90631345e-02, 0., 0., 6.29050672e-01,
          6.29050672e-01, 3.06443665e-02, 0., 1.74934566e-01, 0., 0., 0.,
          0., 9.94002640e-01, 4.52046767e-02, 0., 0., 0., 0., 0., 0., 0.,
          9.95024860e-01, 0., 0., 0., 0., 0., 0., 0., 0., 9.83847022e-01,
          0., 0., 0., 0., 0., 0., 0., 0., 9.94002640e-01, 4.52046767e-02,
          0., 0., 0., 0., 0., 0., 0., 9.95024860e-01, 0., 0., 0., 0., 0.,
          0., 0., 0., 9.83847022e-01, 0., 0., 0., 0., 0., 0., 0., 0., 0.,
          0., 0., 0., 0., 0., 0., 0., 0., 0., 0., 0., 0., 0., 0., 0., 0.,
          0., 0., 0., 0., 0., 0., 0., 0., 0., 0., 0., 0., 0., 0., 0., 0.,
          0., 0., 0., 0., 0., 0., 0., 0., 0., 0., 0., 0., 0., 0., 0., 0.,
          0., 0., 0., 0., 0., 0., 0., 0., 0., 0., 0., 0., 0., 0., 0., 0.,
          0., 0., 0., 0., 0., 0., 0., 0., 0., 0., 0., 0., 4.69947338e-01,
          3.93040106e-02, 4.95689623e-02, 2.66920477e-02, 6.42325059e-02,
          3.21035743e-01, 4.69947338e-01, 4.69947338e-01, 4.69947338e-01,
          0., 0., 0., 0., 0., 0., 8.35304379e-01, 5.42154014e-01, 0., 0.,
          0., 0., 0., 0., 0., 0., 0., 0., 9.91164446e-02, 1.22139968e-01,
          1.17564671e-01, 3.30630839e-02, 4.78614420e-01, 4.78614420e-01,
          4.78614420e-01, 4.78614420e-01, 1.98180586e-01, 0., 0., 0., 0.,
          0., 0., 8.15888822e-01, 5.71124494e-01, 0., 0., 0., 0., 0., 0.,
          0., 0., 0., 0., 9.91164446e-02, 1.22139968e-01, 1.17564671e-01,
          3.30630839e-02, 4.78614420e-01, 4.78614420e-01, 4.78614420e-01,
          4.78614420e-01, 1.98180586e-01, 0., 0., 0., 0., 0., 0.,
          8.15888822e-01, 5.71124494e-01, 0., 0., 0., 0., 0., 0., 0., 0.,
          0., 0., 2.38163415e-02, 0., 0., 0., 5.52836895e-01,
          5.52836895e-01, 5.52836895e-01, 2.76512176e-01, 2.38163415e-02,
          0., 0., 0., 0., 0., 0., 0., 0., 0., 0., 0., 0., 0., 0., 0., 0.,
          0., 0., 7.04615593e-01, 0., 0., 0., 0., 0., 0., 0.,
          7.04615593e-01, 0., 0., 0., 0., 0., 0., 0., 0., 0., 0., 0., 0.,
          0., 0., 0., 0., 0., 0., 7.04615593e-01, 0., 0., 0., 0., 0., 0.,
          0., 7.04615593e-01, 0., 0., 0., 0., 0., 0., 0., 0., 0., 0., 0.,
          0., 0., 0., 0., 0., 0., 0., 4.79488611e-01, 0., 1.63424704e-02,
          2.74420291e-01, 4.79488611e-01, 0., 0., 4.79488611e-01,
          4.79488611e-01, 5.61785638e-01, 0., 4.50765714e-03,
          6.24795072e-02, 2.08941862e-01, 0., 0., 5.61785638e-01,
          5.61785638e-01, 6.75408781e-01, 0., 0., 0., 0., 0., 0.,
          2.84435004e-01, 6.75408781e-01, 2.58478880e-01, 0.,
          8.01485851e-02, 5.55281818e-01, 5.55281818e-01, 0., 0.,
          1.65919930e-01, 5.26321948e-01, 4.53890145e-01, 0.,
          6.68165460e-02, 4.82921660e-01, 4.82921660e-01, 0., 0.,
          2.91643500e-01, 4.82921660e-01, 4.85966653e-01, 0.,
          2.22327020e-02, 4.85966653e-01, 4.85966653e-01, 2.24003918e-03,
          0., 2.23590165e-01, 4.85966653e-01, 4.56832886e-01,
          4.56832886e-01, 0., 0., 4.56832886e-01, 4.00706440e-01,
          9.28336103e-03, 0., 4.56832886e-01, 4.74229902e-01,
          4.66269195e-01, 0., 0., 4.74229902e-01, 4.74229902e-01,
          4.70893234e-02, 0., 3.17737162e-01, 5.37295103e-01,
          1.30948320e-01, 1.03004684e-03, 0., 5.37295103e-01,
          5.37295103e-01, 4.91612814e-02, 0., 3.30167890e-01,
          4.07429695e-01, 6.90631345e-02, 0., 0., 6.29050672e-01,
          6.29050672e-01, 3.06443665e-02, 0., 1.74934566e-01,
          7.27887601e-02, 2.41410099e-02, 0., 0., 7.00940251e-01,
          7.00940251e-01, 5.43309525e-02, 0., 3.91872302e-02, 0., 0., 0.,
          0., 7.01555073e-01, 7.01555073e-01, 9.29389521e-02, 0., 0., 0.,
          0., 0., 0., 9.83847022e-01, 0., 0., 0., 0., 0., 0., 0., 0., 0.,
          0., 0., 0., 0., 0., 0., 0., 0., 0., 0., 0., 0., 0., 0., 0., 0.,
          0., 9.83847022e-01, 0., 0., 0., 0., 0., 0., 0., 0., 0., 0., 0.,
          0., 0., 0., 0., 0., 0., 0., 0., 0., 0., 0., 0., 0., 0., 0., 0.,
          0., 0., 0., 0., 0., 0., 0., 0., 0., 0., 0., 0., 0., 0., 0., 0.,
          0., 0., 0., 0., 0., 0., 0., 0., 0., 0., 0., 0., 0., 0., 0., 0.,
          0., 0., 0., 0., 0., 0., 0., 0., 0., 0., 0., 0., 0., 0., 0., 0.,
          0., 0., 0., 0., 0., 0., 0., 0., 0., 0., 0., 0., 0., 0., 0., 0.,
          0., 0., 0., 0., 0., 0., 0., 0., 0., 0., 0., 0., 0., 0., 0., 0.,
          0., 0., 0., 0., 0., 0., 0., 0., 0., 0., 0., 0., 0., 0., 0., 0.,
          0., 0., 0., 0., 0., 0., 0., 0., 0., 0., 0., 0., 0., 0., 0., 0.,
          0., 0., 0., 0., 0., 0., 0., 0., 0., 0., 0., 0., 0., 0., 0., 0.,
          0., 0., 0., 0., 0., 0., 0., 0., 0., 0., 0., 0., 0., 0., 0., 0.,
          0., 0., 0., 0., 0., 0., 0., 0., 0., 0., 0., 0., 0., 0., 0., 0.,
          0., 0., 0., 0., 0., 0., 0., 0., 0., 0., 0., 0., 0., 0., 0., 0.,
          0., 0., 0., 0., 0., 0., 0., 0., 0., 0., 0., 0., 0., 0., 0., 0.,
          0., 0., 0., 0., 0., 0., 0., 0., 0., 0., 0., 0., 0., 0., 0., 0.,
          0., 0., 0., 0., 0., 0., 0., 0., 0., 0., 0., 0., 0., 0., 0., 0.,
          0., 0., 0., 0., 0., 0., 0., 0., 0., 0., 0., 0., 0., 0.,
          6.75408781e-01, 0., 0., 0., 0., 0., 0., 2.84435004e-01,
          6.75408781e-01, 6.61115348e-01, 0., 0., 0., 0., 0., 0.,
          3.45330149e-01, 6.61115348e-01, 6.66691542e-01, 0., 0., 0., 0.,
          0., 0., 9.18478221e-02, 7.33906031e-01, 4.85966653e-01, 0.,
          2.22327020e-02, 4.85966653e-01, 4.85966653e-01, 2.24003918e-03,
          0., 2.23590165e-01, 4.85966653e-01, 4.46015179e-01, 0.,
          2.99478285e-02, 4.46015179e-01, 4.46015179e-01, 5.39181812e-04,
          0., 4.46015179e-01, 4.46015179e-01, 5.21717250e-01, 0.,
          1.35294208e-02, 2.25305870e-01, 3.56759399e-01, 0., 0.,
          5.21717250e-01, 5.21717250e-01 ]
      - [ 0., 0., 0., 0., 0., 0., 0., 0., 0., 0., 0., 0., 0., 0., 0., 0.,
          0., 0., 0., 0., 0., 0., 0., 0., 0., 0., 0., 7.04615593e-01, 0.,
          0., 0., 0., 0., 0., 0., 7.04615593e-01, 5.75688422e-01,
          5.75688422e-01, 0., 0., 0., 0., 0., 0., 5.75688422e-01,
          5.70367038e-01, 5.70367038e-01, 0., 1.36798644e-03,
          1.24984659e-01, 4.18897681e-02, 5.45130344e-04, 3.11548971e-02,
          5.70367038e-01, 5.25436878e-01, 5.25436878e-01, 5.66120073e-02,
          4.03004093e-03, 1.71878472e-01, 3.61525297e-01, 5.43752201e-02,
          8.95718858e-03, 5.25436878e-01, 4.45286661e-01, 4.45286661e-01,
          2.62909606e-02, 1.86622536e-04, 4.45286661e-01, 4.45286661e-01,
          5.13736308e-02, 2.86475513e-02, 4.45286661e-01, 4.90503222e-01,
          4.15483356e-01, 0., 2.69417185e-03, 4.90503222e-01,
          4.90503222e-01, 2.51966845e-02, 6.20456524e-02, 3.10165465e-01,
          5.25436878e-01, 5.25436878e-01, 5.66120073e-02, 4.03004093e-03,
          1.71878472e-01, 3.61525297e-01, 5.43752201e-02, 8.95718858e-03,
          5.25436878e-01, 4.45286661e-01, 4.45286661e-01, 2.62909606e-02,
          1.86622536e-04, 4.45286661e-01, 4.45286661e-01, 5.13736308e-02,
          2.86475513e-02, 4.45286661e-01, 4.90503222e-01, 4.15483356e-01,
          0., 2.69417185e-03, 4.90503222e-01, 4.90503222e-01,
          2.51966845e-02, 6.20456524e-02, 3.10165465e-01, 3.35926682e-01,
          3.35926682e-01, 3.06381762e-01, 3.35926682e-01, 3.35926682e-01,
          3.35926682e-01, 3.35926682e-01, 3.35926682e-01, 3.35926682e-01,
          4.39166367e-01, 5.77456616e-02, 1.88651234e-02, 1.22570679e-01,
          4.39166367e-01, 4.39166367e-01, 1.12087481e-01, 4.39166367e-01,
          4.39166367e-01, 4.66440409e-01, 7.84675591e-03, 6.79553836e-04,
          0., 4.66440409e-01, 4.66440409e-01, 8.55753385e-03,
          3.53467375e-01, 4.66440409e-01, 4.12742570e-02, 7.42499623e-03,
          1.86796024e-01, 6.33209884e-01, 6.33209884e-01, 1.66332070e-02,
          4.71014753e-02, 1.99502617e-01, 3.35887432e-01, 2.35405385e-01,
          4.03289460e-02, 3.15906070e-02, 5.09573221e-01, 5.09573221e-01,
          2.11405987e-03, 6.74324436e-03, 3.97273272e-01, 5.09573221e-01,
          4.41457659e-01, 4.95732836e-02, 3.51114236e-02, 4.46364790e-01,
          4.46364790e-01, 0., 0., 4.46364790e-01, 4.46364790e-01,
          4.12742570e-02, 7.42499623e-03, 1.86796024e-01, 6.33209884e-01,
          6.33209884e-01, 1.66332070e-02, 4.71014753e-02, 1.99502617e-01,
          3.35887432e-01, 2.35405385e-01, 4.03289460e-02, 3.15906070e-02,
          5.09573221e-01, 5.09573221e-01, 2.11405987e-03, 6.74324436e-03,
          3.97273272e-01, 5.09573221e-01, 4.41457659e-01, 4.95732836e-02,
          3.51114236e-02, 4.46364790e-01, 4.46364790e-01, 0., 0.,
          4.46364790e-01, 4.46364790e-01, 0., 0., 0., 7.04615593e-01,
          7.04615593e-01, 0., 0., 0., 0., 9.50498134e-03, 8.05027410e-03,
          3.73728480e-03, 7.04549372e-01, 7.04549372e-01, 0., 0., 0.,
          4.26368369e-03, 5.38753234e-02, 3.50377895e-02, 1.00847632e-01,
          6.85363233e-01, 6.85363233e-01, 0., 0., 7.04887137e-02,
          1.85589343e-01, 0., 0., 0., 0., 0., 0., 0., 0., 0., 0., 0., 0.,
          0., 0., 0., 0., 0., 0., 6.69971347e-01, 0., 0., 0., 0., 0., 0.,
          0., 6.69971347e-01, 0., 0., 0., 0., 0., 0., 0., 0., 0., 0., 0.,
          0., 0., 0., 0., 0., 0., 0., 6.69971347e-01, 0., 0., 0., 0., 0.,
          0., 0., 6.69971347e-01, 7.38353372e-01, 2.73129214e-02, 0., 0.,
          0., 0., 0., 0., 6.68369949e-01, 5.75688422e-01, 5.75688422e-01,
          0., 0., 0., 0., 0., 0., 5.75688422e-01, 5.74130237e-01,
          5.74130237e-01, 0., 0., 1.81334674e-01, 1.50380760e-01,
          2.10382286e-02, 1.17969904e-02, 5.28145075e-01, 4.94425058e-01,
          4.94425058e-01, 4.30651248e-01, 9.99788940e-02, 1.19136177e-01,
          1.78891167e-01, 1.34110004e-01, 4.53464203e-02, 4.94425058e-01,
          4.56270516e-01, 4.56270516e-01, 1.22438802e-03, 0.,
          4.56270516e-01, 4.56270516e-01, 7.65978247e-02, 1.81567334e-02,
          3.95617217e-01, 5.16513348e-01, 4.04482603e-01, 0., 0.,
          5.16513348e-01, 5.16513348e-01, 8.02839547e-02, 1.55294538e-02,
          1.55533090e-01, 4.94425058e-01, 4.94425058e-01, 4.30651248e-01,
          9.99788940e-02, 1.19136177e-01, 1.78891167e-01, 1.34110004e-01,
          4.53464203e-02, 4.94425058e-01, 4.56270516e-01, 4.56270516e-01,
          1.22438802e-03, 0., 4.56270516e-01, 4.56270516e-01,
          7.65978247e-02, 1.81567334e-02, 3.95617217e-01, 5.16513348e-01,
          4.04482603e-01, 0., 0., 5.16513348e-01, 5.16513348e-01,
          8.02839547e-02, 1.55294538e-02, 1.55533090e-01, 3.90144676e-01,
          2.99605310e-01, 3.90144676e-01, 3.90144676e-01, 3.90144676e-01,
          1.53347209e-01, 3.76296103e-01, 1.40348762e-01, 3.35671872e-01,
          4.46388811e-01, 3.96595225e-02, 7.35219344e-02, 3.73558700e-01,
          4.46388811e-01, 4.46388811e-01, 1.69664323e-01, 1.52245939e-01,
          4.46388811e-01, 5.03839612e-01, 1.70020957e-03, 1.09661119e-02,
          2.68743217e-01, 5.03839612e-01, 3.07564527e-01, 5.35766967e-03,
          2.57748395e-01, 5.03839612e-01, 3.92006524e-02, 4.54556830e-02,
          5.22206903e-01, 5.93915522e-01, 5.93915522e-01, 0.,
          1.89494099e-02, 7.58018345e-03, 1.08990408e-01, 9.39976126e-02,
          0., 1.19399585e-01, 6.47508740e-01, 6.47508740e-01, 0.,
          7.73691013e-03, 3.31459790e-02, 3.61593813e-01, 2.33885184e-01,
          0., 2.08130516e-02, 5.73547482e-01, 5.73547482e-01, 0.,
          2.80357024e-04, 7.36584216e-02, 5.25165200e-01, 0., 0., 0., 0.,
          0., 0., 0., 0., 0., 7.04615593e-01, 0., 0., 0., 0., 0., 0., 0.,
          7.04615593e-01, 6.98989630e-01, 1.25893965e-01, 0., 0., 0., 0.,
          0., 0., 6.98989630e-01, 5.70367038e-01, 5.70367038e-01, 0.,
          1.36798644e-03, 1.24984659e-01, 4.18897681e-02, 5.45130344e-04,
          3.11548971e-02, 5.70367038e-01, 5.23932934e-01, 3.39378834e-01,
          0., 6.03958080e-03, 5.19814074e-01, 2.44633973e-01,
          1.00804819e-02, 1.96894947e-02, 5.23932934e-01, 5.17356038e-01,
          2.25973248e-01, 0., 9.94589552e-03, 5.17356038e-01,
          3.75062943e-01, 5.14942454e-03, 0., 5.17356038e-01,
          4.90503222e-01, 4.15483356e-01, 0., 2.69417185e-03,
          4.90503222e-01, 4.90503222e-01, 2.51966845e-02, 6.20456524e-02,
          3.10165465e-01, 5.56058943e-01, 1.49562493e-01, 0.,
          1.52751198e-02, 5.56058943e-01, 5.56058943e-01, 6.81637377e-02,
          4.48998511e-02, 1.93850219e-01, 3.97866517e-01, 5.70583493e-02,
          0., 1.63633954e-02, 6.19013548e-01, 6.19013548e-01,
          1.03711337e-02, 0., 2.55998373e-01, 4.90503222e-01,
          4.15483356e-01, 0., 2.69417185e-03, 4.90503222e-01,
          4.90503222e-01, 2.51966845e-02, 6.20456524e-02, 3.10165465e-01,
          5.56058943e-01, 1.49562493e-01, 0., 1.52751198e-02,
          5.56058943e-01, 5.56058943e-01, 6.81637377e-02, 4.48998511e-02,
          1.93850219e-01, 3.97866517e-01, 5.70583493e-02, 0.,
          1.63633954e-02, 6.19013548e-01, 6.19013548e-01, 1.03711337e-02,
          0., 2.55998373e-01, 4.66440409e-01, 7.84675591e-03,
          6.79553836e-04, 0., 4.66440409e-01, 4.66440409e-01,
          8.55753385e-03, 3.53467375e-01, 4.66440409e-01, 4.88639981e-01,
          0., 0., 0., 4.88639981e-01, 4.88639981e-01, 3.08438558e-02,
          1.97717652e-01, 4.88639981e-01, 0., 0., 0., 0., 9.64019954e-01,
          0., 0., 0., 0., 4.41457659e-01, 4.95732836e-02, 3.51114236e-02,
          4.46364790e-01, 4.46364790e-01, 0., 0., 4.46364790e-01,
          4.46364790e-01, 4.46684122e-01, 8.37345328e-03, 3.70460823e-02,
          4.42706257e-01, 4.46684122e-01, 0., 0., 4.46684122e-01,
          4.46684122e-01, 5.47920823e-01, 0., 4.90770163e-03,
          1.50656432e-01, 2.66749144e-01, 0., 0., 5.47920823e-01,
          5.47920823e-01, 4.41457659e-01, 4.95732836e-02, 3.51114236e-02,
          4.46364790e-01, 4.46364790e-01, 0., 0., 4.46364790e-01,
          4.46364790e-01, 4.46684122e-01, 8.37345328e-03, 3.70460823e-02,
          4.42706257e-01, 4.46684122e-01, 0., 0., 4.46684122e-01,
          4.46684122e-01, 5.47920823e-01, 0., 4.90770163e-03,
          1.50656432e-01, 2.66749144e-01, 0., 0., 5.47920823e-01,
          5.47920823e-01, 5.38753234e-02, 3.50377895e-02, 1.00847632e-01,
          6.85363233e-01, 6.85363233e-01, 0., 0., 7.04887137e-02,
          1.85589343e-01, 1.92542970e-01, 2.79755448e-03, 8.28486905e-02,
          5.66318154e-01, 5.66318154e-01, 0., 0., 1.67630374e-01,
          5.29969692e-01, 3.76545101e-01, 0., 7.75705427e-02,
          4.99239773e-01, 4.99239773e-01, 0., 0., 3.15419465e-01,
          4.99239773e-01, 6.69971347e-01, 0., 0., 0., 0., 0., 0., 0.,
          6.69971347e-01, 5.47873199e-01, 5.13690710e-01, 0.,
          6.43936768e-02, 3.55209917e-01, 0., 0., 0., 5.47873199e-01,
          4.71965224e-01, 4.71965224e-01, 2.15282198e-02, 3.21445286e-01,
          4.71965224e-01, 2.20911913e-02, 1.65654637e-03, 0.,
          4.71965224e-01, 6.69971347e-01, 0., 0., 0., 0., 0., 0., 0.,
          6.69971347e-01, 5.47873199e-01, 5.13690710e-01, 0.,
          6.43936768e-02, 3.55209917e-01, 0., 0., 0., 5.47873199e-01,
          4.71965224e-01, 4.71965224e-01, 2.15282198e-02, 3.21445286e-01,
          4.71965224e-01, 2.20911913e-02, 1.65654637e-03, 0.,
          4.71965224e-01, 5.74130237e-01, 5.74130237e-01, 0., 0.,
          1.81334674e-01, 1.50380760e-01, 2.10382286e-02, 1.17969904e-02,
          5.28145075e-01, 4.67961699e-01, 4.67961699e-01, 0., 0.,
          4.67961699e-01, 4.67961699e-01, 3.45487855e-02, 3.53424647e-03,
          3.43754500e-01, 4.76385653e-01, 4.43464428e-01, 0., 0.,
          4.76385653e-01, 4.76385653e-01, 6.18198067e-02, 0.,
          3.37534428e-01, 5.16513348e-01, 4.04482603e-01, 0., 0.,
          5.16513348e-01, 5.16513348e-01, 8.02839547e-02, 1.55294538e-02,
          1.55533090e-01, 5.11932433e-01, 1.56094491e-01, 0., 0.,
          5.86029232e-01, 5.86029232e-01, 1.17905445e-01, 1.17443763e-02,
          8.25104043e-02, 1.19759962e-01, 3.05580031e-02, 0., 0.,
          6.94047689e-01, 6.94047689e-01, 1.11976385e-01, 0.,
          4.30363752e-02, 5.16513348e-01, 4.04482603e-01, 0., 0.,
          5.16513348e-01, 5.16513348e-01, 8.02839547e-02, 1.55294538e-02,
          1.55533090e-01, 5.11932433e-01, 1.56094491e-01, 0., 0.,
          5.86029232e-01, 5.86029232e-01, 1.17905445e-01, 1.17443763e-02,
          8.25104043e-02, 1.19759962e-01, 3.05580031e-02, 0., 0.,
          6.94047689e-01, 6.94047689e-01, 1.11976385e-01, 0.,
          4.30363752e-02, 5.03839612e-01, 1.70020957e-03, 1.09661119e-02,
          2.68743217e-01, 5.03839612e-01, 3.07564527e-01, 5.35766967e-03,
          2.57748395e-01, 5.03839612e-01, 5.69411039e-01, 0.,
          2.39513363e-04, 9.46973190e-02, 5.03852606e-01, 1.47982324e-02,
          1.10724382e-03, 2.87751257e-01, 5.69411039e-01, 6.22924566e-01,
          0., 0., 2.83489171e-02, 1.64240032e-01, 0., 0., 4.35811996e-01,
          6.22924566e-01, 2.33885184e-01, 0., 2.08130516e-02,
          5.73547482e-01, 5.73547482e-01, 0., 2.80357024e-04,
          7.36584216e-02, 5.25165200e-01, 4.27407503e-01, 0.,
          6.56523218e-04, 5.17780244e-01, 5.19828916e-01, 0., 0.,
          5.99197224e-02, 5.19828916e-01, 4.89812195e-01, 0., 0.,
          4.89812195e-01, 4.89812195e-01, 0., 0., 1.88265577e-01,
          4.89812195e-01, 6.98989630e-01, 1.25893965e-01, 0., 0., 0., 0.,
          0., 0., 6.98989630e-01, 6.24655187e-01, 4.61925298e-01, 0., 0.,
          0., 0., 0., 0., 6.24655187e-01, 5.65041900e-01, 5.65041900e-01,
          0., 1.25852795e-02, 1.82767853e-01, 5.45723327e-02, 0., 0.,
          5.65041900e-01, 5.17356038e-01, 2.25973248e-01, 0.,
          9.94589552e-03, 5.17356038e-01, 3.75062943e-01, 5.14942454e-03,
          0., 5.17356038e-01, 4.48080778e-01, 4.37388837e-01, 0.,
          1.98857524e-02, 4.48080778e-01, 4.48080778e-01, 2.67238636e-02,
          0., 4.48080778e-01, 4.59209502e-01, 3.88287187e-01, 0.,
          2.35020239e-02, 4.59209502e-01, 4.59209502e-01, 2.45064851e-02,
          0., 4.59209502e-01, 3.97866517e-01, 5.70583493e-02, 0.,
          1.63633954e-02, 6.19013548e-01, 6.19013548e-01, 1.03711337e-02,
          0., 2.55998373e-01, 2.50579864e-01, 6.94032162e-02, 0.,
          5.00156954e-02, 6.65524185e-01, 6.65524185e-01, 5.85473478e-02,
          0., 1.84321910e-01, 2.81033181e-02, 0., 0., 7.02807680e-02,
          7.01858997e-01, 7.01858997e-01, 3.61722186e-02, 0.,
          2.72811614e-02, 3.97866517e-01, 5.70583493e-02, 0.,
          1.63633954e-02, 6.19013548e-01, 6.19013548e-01, 1.03711337e-02,
          0., 2.55998373e-01, 2.50579864e-01, 6.94032162e-02, 0.,
          5.00156954e-02, 6.65524185e-01, 6.65524185e-01, 5.85473478e-02,
          0., 1.84321910e-01, 2.81033181e-02, 0., 0., 7.02807680e-02,
          7.01858997e-01, 7.01858997e-01, 3.61722186e-02, 0.,
          2.72811614e-02, 0., 0., 0., 0., 9.64019954e-01, 0., 0., 0., 0.,
          0., 0., 0., 0., 0., 0., 0., 0., 0., 0., 0., 0., 0., 0., 0., 0.,
          0., 0., 5.47920823e-01, 0., 4.90770163e-03, 1.50656432e-01,
          2.66749144e-01, 0., 0., 5.47920823e-01, 5.47920823e-01,
          5.75665295e-01, 0., 0., 3.60037922e-03, 8.19570292e-03, 0., 0.,
          5.75665295e-01, 5.75665295e-01, 5.97823143e-01, 0., 0., 0., 0.,
          0., 0., 1.51340529e-01, 7.82238185e-01, 5.47920823e-01, 0.,
          4.90770163e-03, 1.50656432e-01, 2.66749144e-01, 0., 0.,
          5.47920823e-01, 5.47920823e-01, 5.75665295e-01, 0., 0.,
          3.60037922e-03, 8.19570292e-03, 0., 0., 5.75665295e-01,
          5.75665295e-01, 5.97823143e-01, 0., 0., 0., 0., 0., 0.,
          1.51340529e-01, 7.82238185e-01, 3.76545101e-01, 0.,
          7.75705427e-02, 4.99239773e-01, 4.99239773e-01, 0., 0.,
          3.15419465e-01, 4.99239773e-01, 4.45376128e-01, 6.99833594e-03,
          6.08510673e-02, 4.45376128e-01, 4.45376128e-01, 1.36923103e-04,
          0., 4.45376128e-01, 4.45376128e-01, 4.58641827e-01,
          1.23845145e-01, 1.53526947e-01, 3.23629469e-01, 4.58641827e-01,
          6.18708991e-02, 8.08542892e-02, 4.58641827e-01, 4.58641827e-01,
          4.71965224e-01, 4.71965224e-01, 2.15282198e-02, 3.21445286e-01,
          4.71965224e-01, 2.20911913e-02, 1.65654637e-03, 0.,
          4.71965224e-01, 4.26469773e-01, 4.26469773e-01, 3.70383300e-02,
          4.26469773e-01, 4.26469773e-01, 2.90818781e-01, 8.51126295e-03,
          1.83768068e-02, 4.26469773e-01, 3.73735011e-01, 3.73735011e-01,
          2.95795739e-01, 2.52436489e-01, 3.73735011e-01, 3.73735011e-01,
          3.38477850e-01, 1.79137677e-01, 3.73735011e-01, 4.71965224e-01,
          4.71965224e-01, 2.15282198e-02, 3.21445286e-01, 4.71965224e-01,
          2.20911913e-02, 1.65654637e-03, 0., 4.71965224e-01,
          4.26469773e-01, 4.26469773e-01, 3.70383300e-02, 4.26469773e-01,
          4.26469773e-01, 2.90818781e-01, 8.51126295e-03, 1.83768068e-02,
          4.26469773e-01, 3.73735011e-01, 3.73735011e-01, 2.95795739e-01,
          2.52436489e-01, 3.73735011e-01, 3.73735011e-01, 3.38477850e-01,
          1.79137677e-01, 3.73735011e-01, 4.76385653e-01, 4.43464428e-01,
          0., 0., 4.76385653e-01, 4.76385653e-01, 6.18198067e-02, 0.,
          3.37534428e-01, 5.38493156e-01, 2.39859447e-01, 0., 0.,
          5.38493156e-01, 5.38493156e-01, 1.01220444e-01, 0.,
          2.38578632e-01, 3.05826813e-01, 1.50706828e-01, 1.28390612e-02,
          0., 6.24365151e-01, 6.24365151e-01, 2.85245687e-01,
          1.12012224e-02, 1.27296463e-01, 1.19759962e-01, 3.05580031e-02,
          0., 0., 6.94047689e-01, 6.94047689e-01, 1.11976385e-01, 0.,
          4.30363752e-02, 0., 0., 0., 0., 7.00138688e-01, 7.00138688e-01,
          1.12350792e-01, 0., 0., 0., 0., 0., 0., 9.78501320e-01, 0., 0.,
          0., 0., 1.19759962e-01, 3.05580031e-02, 0., 0., 6.94047689e-01,
          6.94047689e-01, 1.11976385e-01, 0., 4.30363752e-02, 0., 0., 0.,
          0., 7.00138688e-01, 7.00138688e-01, 1.12350792e-01, 0., 0., 0.,
          0., 0., 0., 9.78501320e-01, 0., 0., 0., 0., 6.22924566e-01, 0.,
          0., 2.83489171e-02, 1.64240032e-01, 0., 0., 4.35811996e-01,
          6.22924566e-01, 6.95437133e-01, 0., 0., 0., 0., 0., 0.,
          1.60599768e-01, 6.95437133e-01, 6.15925014e-01, 0., 0., 0., 0.,
          0., 0., 4.84894931e-01, 6.15925014e-01, 4.89812195e-01, 0., 0.,
          4.89812195e-01, 4.89812195e-01, 0., 0., 1.88265577e-01,
          4.89812195e-01, 4.94570464e-01, 0., 3.52615975e-02,
          4.94570464e-01, 4.94570464e-01, 0., 0., 1.24166690e-01,
          4.94570464e-01, 4.45928961e-01, 0., 3.49634252e-02,
          4.45928961e-01, 4.45928961e-01, 7.74119189e-03, 0.,
          4.45928961e-01, 4.45928961e-01, 5.65041900e-01, 5.65041900e-01,
          0., 1.25852795e-02, 1.82767853e-01, 5.45723327e-02, 0., 0.,
          5.65041900e-01, 4.94601399e-01, 4.94601399e-01, 0.,
          2.89032683e-02, 4.24817204e-01, 2.82601029e-01, 0., 0.,
          4.94601399e-01, 4.45971251e-01, 4.45971251e-01, 0.,
          3.00251059e-02, 4.45971251e-01, 4.45971251e-01, 1.38573255e-02,
          0., 4.45971251e-01, 4.59209502e-01, 3.88287187e-01, 0.,
          2.35020239e-02, 4.59209502e-01, 4.59209502e-01, 2.45064851e-02,
          0., 4.59209502e-01, 5.25892973e-01, 2.19954401e-01, 0.,
          5.49477302e-02, 5.25892973e-01, 5.25892973e-01, 1.22659688e-03,
          0., 3.37130696e-01, 4.20007795e-01, 1.24872632e-01, 0.,
          3.68668400e-02, 6.23756349e-01, 6.23756349e-01, 1.03028007e-02,
          0., 1.48872718e-01, 2.81033181e-02, 0., 0., 7.02807680e-02,
          7.01858997e-01, 7.01858997e-01, 3.61722186e-02, 0.,
          2.72811614e-02, 0., 0., 0., 0., 7.04613626e-01, 7.04613626e-01,
          2.39857519e-03, 0., 0., 0., 0., 0., 0., 9.86476123e-01,
          1.30477324e-01, 0., 0., 0., 2.81033181e-02, 0., 0.,
          7.02807680e-02, 7.01858997e-01, 7.01858997e-01, 3.61722186e-02,
          0., 2.72811614e-02, 0., 0., 0., 0., 7.04613626e-01,
          7.04613626e-01, 2.39857519e-03, 0., 0., 0., 0., 0., 0.,
          9.86476123e-01, 1.30477324e-01, 0., 0., 0., 0., 0., 0., 0., 0.,
          0., 0., 0., 0., 0., 0., 0., 0., 0., 0., 0., 0., 0., 0., 0., 0.,
          0., 0., 0., 0., 0., 0., 5.97823143e-01, 0., 0., 0., 0., 0., 0.,
          1.51340529e-01, 7.82238185e-01, 0., 0., 0., 0., 0., 0., 0., 0.,
          0., 0., 0., 0., 0., 0., 0., 0., 0., 0., 5.97823143e-01, 0., 0.,
          0., 0., 0., 0., 1.51340529e-01, 7.82238185e-01, 0., 0., 0., 0.,
          0., 0., 0., 0., 0., 0., 0., 0., 0., 0., 0., 0., 0., 0.,
          4.58641827e-01, 1.23845145e-01, 1.53526947e-01, 3.23629469e-01,
          4.58641827e-01, 6.18708991e-02, 8.08542892e-02, 4.58641827e-01,
          4.58641827e-01, 4.82951850e-01, 3.40613835e-02, 5.60086928e-02,
          0., 2.62342533e-03, 2.40629122e-01, 4.82951850e-01,
          4.82951850e-01, 4.82951850e-01, 0., 0., 0., 0., 0., 0., 0., 0.,
          0., 3.73735011e-01, 3.73735011e-01, 2.95795739e-01,
          2.52436489e-01, 3.73735011e-01, 3.73735011e-01, 3.38477850e-01,
          1.79137677e-01, 3.73735011e-01, 8.54778141e-02, 7.45739415e-02,
          1.02474272e-01, 0., 7.59722153e-03, 5.47430992e-01,
          5.47430992e-01, 5.47430992e-01, 2.68448621e-01, 0., 0., 0., 0.,
          0., 0., 0., 0., 0., 3.73735011e-01, 3.73735011e-01,
          2.95795739e-01, 2.52436489e-01, 3.73735011e-01, 3.73735011e-01,
          3.38477850e-01, 1.79137677e-01, 3.73735011e-01, 8.54778141e-02,
          7.45739415e-02, 1.02474272e-01, 0., 7.59722153e-03,
          5.47430992e-01, 5.47430992e-01, 5.47430992e-01, 2.68448621e-01,
          0., 0., 0., 0., 0., 0., 0., 0., 0., 3.05826813e-01,
          1.50706828e-01, 1.28390612e-02, 0., 6.24365151e-01,
          6.24365151e-01, 2.85245687e-01, 1.12012224e-02, 1.27296463e-01,
          0., 1.08542498e-02, 1.28860688e-02, 0., 2.02812001e-01,
          6.95030808e-01, 6.83728874e-01, 3.30478661e-02, 0., 0., 0., 0.,
          0., 0., 0., 0., 0., 0., 0., 0., 0., 0., 9.78501320e-01, 0., 0.,
          0., 0., 0., 0., 0., 0., 0., 0., 0., 0., 0., 0., 0., 0., 0., 0.,
          0., 0., 0., 0., 0., 0., 0., 0., 9.78501320e-01, 0., 0., 0., 0.,
          0., 0., 0., 0., 0., 0., 0., 0., 0., 0., 0., 0., 0., 0., 0., 0.,
          0., 0., 6.15925014e-01, 0., 0., 0., 0., 0., 0., 4.84894931e-01,
          6.15925014e-01, 7.04514146e-01, 0., 0., 0., 0., 0., 0., 0.,
          7.04514146e-01, 0., 0., 0., 0., 0., 0., 0., 0., 0.,
          4.45928961e-01, 0., 3.49634252e-02, 4.45928961e-01,
          4.45928961e-01, 7.74119189e-03, 0., 4.45928961e-01,
          4.45928961e-01, 4.64599371e-01, 0., 8.14760756e-03,
          3.77226502e-01, 4.64599371e-01, 3.51385190e-03, 3.13699828e-03,
          4.53225374e-01, 4.64599371e-01, 5.39320350e-01, 0., 0.,
          1.32266551e-01, 5.39320350e-01, 7.74396758e-04, 1.23766949e-02,
          3.23058337e-01, 5.39320350e-01, 4.45971251e-01, 4.45971251e-01,
          0., 3.00251059e-02, 4.45971251e-01, 4.45971251e-01,
          1.38573255e-02, 0., 4.45971251e-01, 4.64806616e-01,
          3.53875250e-01, 1.91505998e-02, 5.09939902e-02, 4.64806616e-01,
          4.64806616e-01, 5.46064787e-02, 0., 4.64806616e-01,
          5.26408374e-01, 1.84070155e-01, 1.45986043e-02, 2.58444045e-02,
          5.26408374e-01, 5.26408374e-01, 7.19180238e-03, 1.82306068e-03,
          3.58619094e-01, 4.20007795e-01, 1.24872632e-01, 0.,
          3.68668400e-02, 6.23756349e-01, 6.23756349e-01, 1.03028007e-02,
          0., 1.48872718e-01, 8.94915760e-02, 1.30532365e-02, 0.,
          3.73070650e-02, 6.98717892e-01, 6.98717892e-01, 7.88479373e-02,
          0., 2.86978967e-02, 0., 0., 0., 2.19751410e-02, 7.04414129e-01,
          7.04414129e-01, 9.32319090e-03, 0., 0., 0., 0., 0., 0.,
          9.86476123e-01, 1.30477324e-01, 0., 0., 0., 0., 0., 0., 0., 0.,
          0., 0., 0., 0., 0., 0., 0., 0., 0., 0., 0., 0., 0., 0., 0., 0.,
          0., 9.86476123e-01, 1.30477324e-01, 0., 0., 0., 0., 0., 0., 0.,
          0., 0., 0., 0., 0., 0., 0., 0., 0., 0., 0., 0., 0., 0., 0., 0.,
          0., 0., 0., 0., 0., 0., 0., 0., 0., 0., 0., 0., 0., 0., 0., 0.,
          0., 0., 0., 0., 0., 0., 0., 0., 0., 0., 0., 0., 0., 0., 0., 0.,
          0., 0., 0., 0., 0., 0., 0., 0., 0., 0., 0., 0., 0., 0., 0., 0.,
          0., 0., 0., 0., 0., 0., 0., 0., 0., 0., 0., 0., 0., 0., 0., 0.,
          0., 0., 0., 0., 0., 0., 0., 0., 0., 0., 0., 0., 0., 0., 0., 0.,
          0., 0., 0., 0., 0., 0., 0., 0., 0., 0., 0., 0., 0., 0., 0., 0.,
          0., 0., 0., 0., 0., 0., 0., 0., 0., 0., 0., 0., 0., 0., 0., 0.,
          0., 0., 0., 0., 0., 0., 0., 0., 0., 0., 0., 0., 0., 0., 0., 0.,
          0., 0., 0., 0., 0., 0., 0., 0., 0., 0., 0., 0., 0., 0., 0., 0.,
          0., 0., 0., 0., 0., 0., 0., 0., 0., 0., 0., 0., 0., 0., 0., 0.,
          0., 0., 0., 0., 0., 0., 0., 0., 0., 0., 0., 0., 0., 0., 0., 0.,
          0., 0., 0., 0., 0., 0., 0., 0., 0., 0., 0., 0., 0., 0., 0., 0.,
          0., 0., 0., 0., 0., 0., 0., 0., 0., 0., 0., 0., 0., 0., 0., 0.,
          0., 0., 0., 0., 0., 0., 0., 0., 0., 0., 0., 0., 0., 0., 0., 0.,
          0., 0., 0., 0., 0., 0., 0., 0., 0., 0., 0., 0., 0., 0., 0., 0.,
          0., 0., 0., 0., 0., 0., 0., 0., 0., 0., 0., 0., 0., 0., 0., 0.,
          0., 0., 0., 0., 0., 0., 0., 0., 0., 0., 0., 0., 5.39320350e-01,
          0., 0., 1.32266551e-01, 5.39320350e-01, 7.74396758e-04,
          1.23766949e-02, 3.23058337e-01, 5.39320350e-01, 6.26748383e-01,
          0., 0., 8.17460716e-02, 1.16475150e-01, 1.75789086e-04,
          1.36773139e-02, 4.33219671e-01, 6.26748383e-01, 6.51082814e-01,
          0., 0., 0., 4.10815654e-03, 0., 0., 3.81661057e-01,
          6.51082814e-01 ]
      - [ 0., 0., 0., 0., 0., 0., 0., 0., 0., 0., 0., 0., 0., 0., 0., 0.,
          0., 0., 0., 0., 0., 0., 0., 0., 0., 0., 0., 5.75688422e-01,
          5.75688422e-01, 0., 0., 0., 0., 0., 0., 5.75688422e-01,
          5.74672639e-01, 5.74672639e-01, 1.06375422e-02, 0.,
          5.66821918e-02, 1.37696788e-02, 0., 0., 5.74672639e-01,
          5.49707115e-01, 5.32826364e-01, 1.14486821e-03, 5.24159870e-04,
          2.57877529e-01, 1.99369788e-01, 0., 0., 5.49707115e-01,
          4.78803605e-01, 4.78803605e-01, 3.80253643e-02, 1.47125858e-03,
          2.68075377e-01, 4.78803605e-01, 6.99195117e-02, 2.21726415e-03,
          4.78803605e-01, 4.50996608e-01, 4.50996608e-01, 1.51088443e-02,
          9.18568857e-03, 4.50996608e-01, 4.50996608e-01, 1.97746139e-02,
          0., 4.25675720e-01, 5.39667785e-01, 1.79960430e-01,
          4.43346333e-03, 1.95033774e-02, 5.39667785e-01, 5.39667785e-01,
          6.99530914e-03, 0., 2.96735853e-01, 4.78803605e-01,
          4.78803605e-01, 3.80253643e-02, 1.47125858e-03, 2.68075377e-01,
          4.78803605e-01, 6.99195117e-02, 2.21726415e-03, 4.78803605e-01,
          4.50996608e-01, 4.50996608e-01, 1.51088443e-02, 9.18568857e-03,
          4.50996608e-01, 4.50996608e-01, 1.97746139e-02, 0.,
          4.25675720e-01, 5.39667785e-01, 1.79960430e-01, 4.43346333e-03,
          1.95033774e-02, 5.39667785e-01, 5.39667785e-01, 6.99530914e-03,
          0., 2.96735853e-01, 3.48257929e-01, 3.28889966e-01,
          3.17420155e-01, 3.48257929e-01, 2.44734287e-01, 3.48257929e-01,
          3.48257929e-01, 3.48257929e-01, 3.48257929e-01, 4.45399523e-01,
          1.37428669e-02, 2.18488136e-03, 5.24792708e-02, 4.45399523e-01,
          4.45399523e-01, 2.64493115e-02, 4.45399523e-01, 4.45399523e-01,
          3.68345708e-01, 0., 0., 1.54202003e-02, 4.95741904e-01,
          4.95741904e-01, 5.73378708e-03, 3.49026412e-01, 4.95741904e-01,
          1.20107546e-01, 1.16879521e-02, 2.07429647e-01, 5.72272241e-01,
          5.72272241e-01, 1.10893697e-03, 1.86063908e-02, 3.41581702e-01,
          4.05807167e-01, 3.22529107e-01, 0., 2.43480429e-02,
          4.71875668e-01, 4.71875668e-01, 1.51519966e-03, 0.,
          4.71875668e-01, 4.71875668e-01, 2.79313415e-01, 0.,
          3.99720334e-02, 5.25228143e-01, 2.95883149e-01, 0.,
          5.81746572e-04, 5.25228143e-01, 5.25228143e-01, 1.20107546e-01,
          1.16879521e-02, 2.07429647e-01, 5.72272241e-01, 5.72272241e-01,
          1.10893697e-03, 1.86063908e-02, 3.41581702e-01, 4.05807167e-01,
          3.22529107e-01, 0., 2.43480429e-02, 4.71875668e-01,
          4.71875668e-01, 1.51519966e-03, 0., 4.71875668e-01,
          4.71875668e-01, 2.79313415e-01, 0., 3.99720334e-02,
          5.25228143e-01, 2.95883149e-01, 0., 5.81746572e-04,
          5.25228143e-01, 5.25228143e-01, 0., 0., 1.23207979e-02,
          7.04561889e-01, 7.04561889e-01, 0., 0., 0., 0., 1.63099915e-02,
          0., 1.09055527e-01, 6.93153322e-01, 6.93153322e-01, 0., 0.,
          4.93682586e-02, 1.32518664e-01, 1.33045968e-02, 4.54112934e-03,
          1.35261565e-01, 5.34670413e-01, 5.34670413e-01, 0.,
          3.28443060e-03, 3.44294965e-01, 5.34670413e-01, 0., 0., 0., 0.,
          0., 0., 0., 0., 0., 0., 0., 0., 0., 9.46154475e-01, 0., 0., 0.,
          0., 4.45955515e-01, 4.45955515e-01, 3.41162942e-02,
          4.45955515e-01, 4.45955515e-01, 0., 0., 0., 4.45955515e-01, 0.,
          0., 0., 0., 0., 0., 0., 0., 0., 0., 0., 0., 0., 9.46154475e-01,
          0., 0., 0., 0., 4.45955515e-01, 4.45955515e-01, 3.41162942e-02,
          4.45955515e-01, 4.45955515e-01, 0., 0., 0., 4.45955515e-01,
          6.22184455e-01, 6.22184455e-01, 0., 0., 0., 0., 0., 0.,
          4.68573183e-01, 5.80608368e-01, 5.80608368e-01, 0., 0.,
          1.50686041e-01, 2.10677341e-01, 5.06671146e-03, 0.,
          5.02864957e-01, 4.47402567e-01, 4.47402567e-01, 0., 0.,
          4.47402567e-01, 4.47402567e-01, 1.63599551e-02, 0.,
          4.41120237e-01, 5.08466303e-01, 5.08466303e-01, 1.51323797e-02,
          1.96342799e-03, 2.88719893e-01, 5.08466303e-01, 8.87711197e-02,
          1.59428325e-02, 3.57185304e-01, 4.85119164e-01, 4.70413357e-01,
          0., 3.93111550e-04, 4.85119164e-01, 4.85119164e-01,
          4.02037166e-02, 0., 2.57347077e-01, 4.89823937e-01,
          1.32627338e-01, 0., 0., 5.95675051e-01, 5.95675051e-01,
          6.83905855e-02, 0., 1.48996189e-01, 5.08466303e-01,
          5.08466303e-01, 1.51323797e-02, 1.96342799e-03, 2.88719893e-01,
          5.08466303e-01, 8.87711197e-02, 1.59428325e-02, 3.57185304e-01,
          4.85119164e-01, 4.70413357e-01, 0., 3.93111550e-04,
          4.85119164e-01, 4.85119164e-01, 4.02037166e-02, 0.,
          2.57347077e-01, 4.89823937e-01, 1.32627338e-01, 0., 0.,
          5.95675051e-01, 5.95675051e-01, 6.83905855e-02, 0.,
          1.48996189e-01, 4.00978953e-01, 3.01543921e-01, 1.37792021e-01,
          4.00978953e-01, 4.00978953e-01, 4.00978953e-01, 2.77861625e-01,
          7.03637004e-02, 4.00978953e-01, 5.05445480e-01, 1.85499154e-03,
          0., 3.19495916e-01, 5.05445480e-01, 3.53122145e-01,
          8.27156194e-03, 4.10098918e-02, 5.05445480e-01, 4.67777222e-01,
          0., 9.20902472e-04, 3.46100032e-01, 4.67777222e-01,
          1.67004727e-02, 8.14948231e-04, 4.67777222e-01, 4.67777222e-01,
          1.31562486e-01, 0., 4.63094227e-02, 6.87831640e-01,
          6.87831640e-01, 0., 2.76333798e-04, 9.21112587e-05,
          1.65696874e-01, 1.49816677e-01, 0., 0., 6.80186272e-01,
          6.80186272e-01, 0., 0., 1.44499494e-02, 2.12718725e-01,
          1.81864232e-01, 0., 8.59017577e-03, 6.42023504e-01,
          6.42023504e-01, 0., 0., 7.57619590e-02, 3.60989630e-01, 0., 0.,
          0., 0., 0., 0., 0., 0., 0., 6.76528454e-01, 2.79042304e-01, 0.,
          0., 0., 0., 0., 0., 6.76528454e-01, 6.47891462e-01,
          3.92434686e-01, 0., 0., 0., 0., 0., 0., 6.47891462e-01,
          5.49707115e-01, 5.32826364e-01, 1.14486821e-03, 5.24159870e-04,
          2.57877529e-01, 1.99369788e-01, 0., 0., 5.49707115e-01,
          4.90717798e-01, 4.16877210e-01, 0., 5.39965695e-03,
          4.90717798e-01, 3.14437985e-01, 0., 1.19125274e-04,
          4.90717798e-01, 4.75544304e-01, 3.00981253e-01, 0.,
          7.54456967e-03, 4.75544304e-01, 4.75544304e-01, 5.80033055e-03,
          5.79192128e-04, 4.75544304e-01, 5.39667785e-01, 1.79960430e-01,
          4.43346333e-03, 1.95033774e-02, 5.39667785e-01, 5.39667785e-01,
          6.99530914e-03, 0., 2.96735853e-01, 4.22561556e-01,
          7.78436288e-02, 0., 1.52629055e-02, 6.26268148e-01,
          6.26268148e-01, 7.78756046e-04, 3.97550793e-05, 1.56435922e-01,
          2.05009803e-01, 2.87680626e-02, 0., 6.92961505e-03,
          6.86580718e-01, 6.86580718e-01, 1.14566181e-02, 3.93083814e-04,
          8.55793282e-02, 5.39667785e-01, 1.79960430e-01, 4.43346333e-03,
          1.95033774e-02, 5.39667785e-01, 5.39667785e-01, 6.99530914e-03,
          0., 2.96735853e-01, 4.22561556e-01, 7.78436288e-02, 0.,
          1.52629055e-02, 6.26268148e-01, 6.26268148e-01, 7.78756046e-04,
          3.97550793e-05, 1.56435922e-01, 2.05009803e-01, 2.87680626e-02,
          0., 6.92961505e-03, 6.86580718e-01, 6.86580718e-01,
          1.14566181e-02, 3.93083814e-04, 8.55793282e-02, 3.68345708e-01,
          0., 0., 1.54202003e-02, 4.95741904e-01, 4.95741904e-01,
          5.73378708e-03, 3.49026412e-01, 4.95741904e-01, 0., 0., 0., 0.,
          9.00748432e-01, 4.23847824e-01, 4.26270394e-03, 0., 0., 0., 0.,
          0., 0., 0., 0., 0., 0., 0., 2.79313415e-01, 0., 3.99720334e-02,
          5.25228143e-01, 2.95883149e-01, 0., 5.81746572e-04,
          5.25228143e-01, 5.25228143e-01, 3.69858325e-01, 0.,
          6.80179428e-03, 9.46835726e-02, 3.04281414e-02, 0.,
          4.32747323e-03, 6.50673807e-01, 6.50673807e-01, 5.88707268e-01,
          0., 0., 0., 0., 0., 0., 5.48606575e-01, 5.88707268e-01,
          2.79313415e-01, 0., 3.99720334e-02, 5.25228143e-01,
          2.95883149e-01, 0., 5.81746572e-04, 5.25228143e-01,
          5.25228143e-01, 3.69858325e-01, 0., 6.80179428e-03,
          9.46835726e-02, 3.04281414e-02, 0., 4.32747323e-03,
          6.50673807e-01, 6.50673807e-01, 5.88707268e-01, 0., 0., 0., 0.,
          0., 0., 5.48606575e-01, 5.88707268e-01, 1.33045968e-02,
          4.54112934e-03, 1.35261565e-01, 5.34670413e-01, 5.34670413e-01,
          0., 3.28443060e-03, 3.44294965e-01, 5.34670413e-01,
          2.51919955e-01, 2.11809613e-02, 6.13283701e-02, 4.81531382e-01,
          4.81531382e-01, 0., 5.21135889e-03, 4.81531382e-01,
          4.81531382e-01, 4.58329499e-01, 0., 2.45212242e-02,
          3.93137395e-01, 4.58329499e-01, 0., 0., 4.58329499e-01,
          4.58329499e-01, 4.45955515e-01, 4.45955515e-01, 3.41162942e-02,
          4.45955515e-01, 4.45955515e-01, 0., 0., 0., 4.45955515e-01,
          4.55293804e-01, 4.04894829e-01, 3.85617651e-02, 4.55293804e-01,
          4.55293804e-01, 1.83880385e-02, 0., 2.27507800e-02,
          4.55293804e-01, 4.76738036e-01, 2.10143074e-01, 9.38145518e-02,
          4.76738036e-01, 4.76738036e-01, 1.65923551e-01, 6.65413123e-03,
          7.47362450e-02, 4.76738036e-01, 4.45955515e-01, 4.45955515e-01,
          3.41162942e-02, 4.45955515e-01, 4.45955515e-01, 0., 0., 0.,
          4.45955515e-01, 4.55293804e-01, 4.04894829e-01, 3.85617651e-02,
          4.55293804e-01, 4.55293804e-01, 1.83880385e-02, 0.,
          2.27507800e-02, 4.55293804e-01, 4.76738036e-01, 2.10143074e-01,
          9.38145518e-02, 4.76738036e-01, 4.76738036e-01, 1.65923551e-01,
          6.65413123e-03, 7.47362450e-02, 4.76738036e-01, 4.47402567e-01,
          4.47402567e-01, 0., 0., 4.47402567e-01, 4.47402567e-01,
          1.63599551e-02, 0., 4.41120237e-01, 4.95803744e-01,
          4.34776008e-01, 0., 0., 4.95803744e-01, 4.95803744e-01,
          1.44424606e-02, 0., 2.61429667e-01, 5.54903030e-01,
          1.25597283e-01, 2.86154891e-03, 1.94301587e-02, 5.54903030e-01,
          5.54903030e-01, 7.17301294e-02, 0., 2.22263187e-01,
          4.89823937e-01, 1.32627338e-01, 0., 0., 5.95675051e-01,
          5.95675051e-01, 6.83905855e-02, 0., 1.48996189e-01,
          5.47931641e-02, 2.16473918e-02, 0., 0., 7.03070164e-01,
          7.03070164e-01, 2.81585064e-02, 0., 1.01296129e-02, 0., 0., 0.,
          0., 7.03468263e-01, 7.03468263e-01, 5.69436625e-02, 0., 0.,
          4.89823937e-01, 1.32627338e-01, 0., 0., 5.95675051e-01,
          5.95675051e-01, 6.83905855e-02, 0., 1.48996189e-01,
          5.47931641e-02, 2.16473918e-02, 0., 0., 7.03070164e-01,
          7.03070164e-01, 2.81585064e-02, 0., 1.01296129e-02, 0., 0., 0.,
          0., 7.03468263e-01, 7.03468263e-01, 5.69436625e-02, 0., 0.,
          4.67777222e-01, 0., 9.20902472e-04, 3.46100032e-01,
          4.67777222e-01, 1.67004727e-02, 8.14948231e-04, 4.67777222e-01,
          4.67777222e-01, 5.86059630e-01, 0., 8.25955416e-04,
          2.01568246e-01, 5.15788972e-01, 0., 0., 2.34008338e-02,
          5.86059630e-01, 5.86973608e-01, 0., 0., 4.49780598e-02,
          4.58597898e-01, 0., 0., 3.04512739e-01, 5.86973608e-01,
          1.81864232e-01, 0., 8.59017577e-03, 6.42023504e-01,
          6.42023504e-01, 0., 0., 7.57619590e-02, 3.60989630e-01,
          2.68918902e-01, 0., 3.87235032e-03, 6.01392031e-01,
          6.01392031e-01, 0., 0., 1.53475115e-03, 4.45326477e-01,
          3.07205528e-01, 0., 0., 1.40763178e-01, 6.60990894e-01, 0., 0.,
          7.34415129e-02, 6.60990894e-01, 6.47891462e-01, 3.92434686e-01,
          0., 0., 0., 0., 0., 0., 6.47891462e-01, 6.41235352e-01,
          4.13675129e-01, 0., 1.12351925e-04, 1.02655124e-02, 0., 0., 0.,
          6.41235352e-01, 5.56357801e-01, 5.56357801e-01, 0.,
          3.34324781e-04, 2.45732799e-01, 7.38737583e-02, 0., 0.,
          5.56357801e-01, 4.75544304e-01, 3.00981253e-01, 0.,
          7.54456967e-03, 4.75544304e-01, 4.75544304e-01, 5.80033055e-03,
          5.79192128e-04, 4.75544304e-01, 4.85491365e-01, 2.12825164e-01,
          0., 7.65012056e-02, 4.85491365e-01, 4.85491365e-01,
          3.45895179e-02, 0., 4.85491365e-01, 4.79247719e-01,
          2.51756430e-01, 0., 1.14505202e-01, 4.79247719e-01,
          4.79247719e-01, 2.63941498e-03, 0., 4.79247719e-01,
          2.05009803e-01, 2.87680626e-02, 0., 6.92961505e-03,
          6.86580718e-01, 6.86580718e-01, 1.14566181e-02, 3.93083814e-04,
          8.55793282e-02, 2.80166231e-02, 1.41463956e-04, 0.,
          9.93513167e-02, 6.99716628e-01, 6.99716628e-01, 5.15224338e-02,
          0., 2.23195814e-02, 0., 0., 0., 2.45750591e-01, 6.82907403e-01,
          6.82907403e-01, 8.01116973e-03, 0., 0., 2.05009803e-01,
          2.87680626e-02, 0., 6.92961505e-03, 6.86580718e-01,
          6.86580718e-01, 1.14566181e-02, 3.93083814e-04, 8.55793282e-02,
          2.80166231e-02, 1.41463956e-04, 0., 9.93513167e-02,
          6.99716628e-01, 6.99716628e-01, 5.15224338e-02, 0.,
          2.23195814e-02, 0., 0., 0., 2.45750591e-01, 6.82907403e-01,
          6.82907403e-01, 8.01116973e-03, 0., 0., 0., 0., 0., 0., 0., 0.,
          0., 0., 0., 0., 0., 0., 0., 0., 0., 0., 0., 0., 0., 0., 0., 0.,
          0., 0., 0., 0., 0., 5.88707268e-01, 0., 0., 0., 0., 0., 0.,
          5.48606575e-01, 5.88707268e-01, 0., 0., 0., 0., 0., 0., 0., 0.,
          0., 0., 0., 0., 0., 0., 0., 0., 0., 0., 5.88707268e-01, 0., 0.,
          0., 0., 0., 0., 5.48606575e-01, 5.88707268e-01, 0., 0., 0., 0.,
          0., 0., 0., 0., 0., 0., 0., 0., 0., 0., 0., 0., 0., 0.,
          4.58329499e-01, 0., 2.45212242e-02, 3.93137395e-01,
          4.58329499e-01, 0., 0., 4.58329499e-01, 4.58329499e-01,
          5.80848336e-01, 3.09833922e-05, 1.00664264e-02, 1.17001243e-01,
          2.73373723e-01, 0., 0., 4.80527431e-01, 5.80848336e-01,
          5.75135648e-01, 5.54253966e-05, 1.66276179e-04, 3.32564791e-03,
          4.14662026e-02, 0., 1.35456305e-02, 5.75135648e-01,
          5.75135648e-01, 4.76738036e-01, 2.10143074e-01, 9.38145518e-02,
          4.76738036e-01, 4.76738036e-01, 1.65923551e-01, 6.65413123e-03,
          7.47362450e-02, 4.76738036e-01, 4.44086283e-01, 1.91696316e-01,
          2.85016179e-01, 3.72978002e-01, 4.44086283e-01, 3.43026847e-01,
          1.24890935e-02, 1.70318931e-01, 4.44086283e-01, 4.05208886e-01,
          3.33923325e-02, 9.01318863e-02, 3.93419527e-02, 4.05208886e-01,
          4.05208886e-01, 4.05208886e-01, 4.05208886e-01, 4.05208886e-01,
          4.76738036e-01, 2.10143074e-01, 9.38145518e-02, 4.76738036e-01,
          4.76738036e-01, 1.65923551e-01, 6.65413123e-03, 7.47362450e-02,
          4.76738036e-01, 4.44086283e-01, 1.91696316e-01, 2.85016179e-01,
          3.72978002e-01, 4.44086283e-01, 3.43026847e-01, 1.24890935e-02,
          1.70318931e-01, 4.44086283e-01, 4.05208886e-01, 3.33923325e-02,
          9.01318863e-02, 3.93419527e-02, 4.05208886e-01, 4.05208886e-01,
          4.05208886e-01, 4.05208886e-01, 4.05208886e-01, 5.54903030e-01,
          1.25597283e-01, 2.86154891e-03, 1.94301587e-02, 5.54903030e-01,
          5.54903030e-01, 7.17301294e-02, 0., 2.22263187e-01,
          2.86537439e-01, 5.48556522e-02, 4.31238189e-02, 1.33515701e-01,
          6.57820821e-01, 6.57820821e-01, 5.94532527e-02, 0.,
          1.40151858e-01, 2.03637294e-02, 9.40097123e-03, 2.53694765e-02,
          2.32666582e-01, 6.40777230e-01, 6.40777230e-01, 3.34203064e-01,
          7.08863586e-02, 2.03637294e-02, 0., 0., 0., 0., 7.03468263e-01,
          7.03468263e-01, 5.69436625e-02, 0., 0., 0., 0., 0., 0.,
          9.87029016e-01, 0., 0., 0., 0., 0., 0., 0., 0., 0., 0., 0., 0.,
          0., 0., 0., 0., 0., 7.03468263e-01, 7.03468263e-01,
          5.69436625e-02, 0., 0., 0., 0., 0., 0., 9.87029016e-01, 0., 0.,
          0., 0., 0., 0., 0., 0., 0., 0., 0., 0., 0., 5.86973608e-01, 0.,
          0., 4.49780598e-02, 4.58597898e-01, 0., 0., 3.04512739e-01,
          5.86973608e-01, 6.13672018e-01, 0., 0., 2.90392060e-02,
          4.85568136e-01, 1.02434016e-03, 0., 6.37600645e-02,
          6.13672018e-01, 6.66442275e-01, 0., 0., 4.26066108e-03,
          5.38848564e-02, 3.19087482e-03, 0., 3.19568962e-01,
          6.66442275e-01, 3.07205528e-01, 0., 0., 1.40763178e-01,
          6.60990894e-01, 0., 0., 7.34415129e-02, 6.60990894e-01,
          4.94925767e-01, 0., 5.53113595e-02, 4.98978198e-01,
          4.98978198e-01, 2.14953534e-03, 0., 7.94919021e-03,
          4.98978198e-01, 4.93249238e-01, 0., 2.48000417e-02,
          4.93249238e-01, 4.93249238e-01, 4.27985471e-03, 0.,
          1.45811930e-01, 4.93249238e-01, 5.56357801e-01, 5.56357801e-01,
          0., 3.34324781e-04, 2.45732799e-01, 7.38737583e-02, 0., 0.,
          5.56357801e-01, 4.93132174e-01, 4.85941589e-01, 0.,
          6.83204830e-03, 4.59497362e-01, 2.47771889e-01, 1.19716628e-03,
          0., 4.93132174e-01, 4.74201739e-01, 4.12223876e-01, 0.,
          7.45349936e-03, 4.74201739e-01, 3.88171583e-01, 6.25633460e-04,
          0., 4.74201739e-01, 4.79247719e-01, 2.51756430e-01, 0.,
          1.14505202e-01, 4.79247719e-01, 4.79247719e-01, 2.63941498e-03,
          0., 4.79247719e-01, 5.49869478e-01, 1.25877455e-01, 0.,
          4.71679457e-02, 5.49869478e-01, 5.49869478e-01, 6.32628845e-03,
          0., 2.63305366e-01, 3.48643512e-01, 6.04515038e-02, 0.,
          2.06314530e-02, 6.53051555e-01, 6.53051555e-01, 6.78818161e-03,
          0., 1.21857025e-01, 0., 0., 0., 2.45750591e-01, 6.82907403e-01,
          6.82907403e-01, 8.01116973e-03, 0., 0., 0., 0., 0.,
          3.21019031e-02, 7.04251230e-01, 7.04251230e-01, 0., 0., 0., 0.,
          0., 0., 0., 9.95024860e-01, 0., 0., 0., 0., 0., 0., 0.,
          2.45750591e-01, 6.82907403e-01, 6.82907403e-01, 8.01116973e-03,
          0., 0., 0., 0., 0., 3.21019031e-02, 7.04251230e-01,
          7.04251230e-01, 0., 0., 0., 0., 0., 0., 0., 9.95024860e-01, 0.,
          0., 0., 0., 0., 0., 0., 0., 0., 0., 0., 0., 0., 0., 0., 0., 0.,
          0., 0., 0., 0., 0., 0., 0., 0., 0., 0., 0., 0., 0., 0., 0., 0.,
          0., 0., 0., 0., 0., 0., 0., 0., 0., 0., 0., 0., 0., 0., 0., 0.,
          0., 0., 0., 0., 0., 0., 0., 0., 0., 0., 0., 0., 0., 0., 0., 0.,
          0., 0., 0., 0., 0., 0., 0., 0., 0., 0., 0., 0., 0., 0., 0., 0.,
          0., 0., 0., 0., 5.75135648e-01, 5.54253966e-05, 1.66276179e-04,
          3.32564791e-03, 4.14662026e-02, 0., 1.35456305e-02,
          5.75135648e-01, 5.75135648e-01, 4.32072222e-01, 0., 0., 0., 0.,
          0., 1.37137398e-01, 6.27789438e-01, 6.27789438e-01, 0., 0., 0.,
          0., 0., 0., 0., 0., 0., 4.05208886e-01, 3.33923325e-02,
          9.01318863e-02, 3.93419527e-02, 4.05208886e-01, 4.05208886e-01,
          4.05208886e-01, 4.05208886e-01, 4.05208886e-01, 1.09128036e-01,
          0., 0., 0., 2.57280283e-02, 5.39389491e-01, 5.39389491e-01,
          5.39389491e-01, 3.30483645e-01, 0., 0., 0., 0., 0., 0., 0., 0.,
          0., 4.05208886e-01, 3.33923325e-02, 9.01318863e-02,
          3.93419527e-02, 4.05208886e-01, 4.05208886e-01, 4.05208886e-01,
          4.05208886e-01, 4.05208886e-01, 1.09128036e-01, 0., 0., 0.,
          2.57280283e-02, 5.39389491e-01, 5.39389491e-01, 5.39389491e-01,
          3.30483645e-01, 0., 0., 0., 0., 0., 0., 0., 0., 0.,
          2.03637294e-02, 9.40097123e-03, 2.53694765e-02, 2.32666582e-01,
          6.40777230e-01, 6.40777230e-01, 3.34203064e-01, 7.08863586e-02,
          2.03637294e-02, 0., 0., 0., 0., 1.39776617e-01, 6.66324914e-01,
          6.66324914e-01, 2.92972118e-01, 0., 0., 0., 0., 0., 0., 0., 0.,
          0., 0., 0., 0., 0., 0., 0., 0., 0., 0., 0., 0., 0., 0., 0., 0.,
          0., 0., 0., 0., 0., 0., 0., 0., 0., 0., 0., 0., 0., 0., 0., 0.,
          0., 0., 0., 0., 0., 0., 0., 0., 0., 0., 0., 0., 0., 0., 0., 0.,
          0., 0., 0., 0., 0., 0., 0., 0., 6.66442275e-01, 0., 0.,
          4.26066108e-03, 5.38848564e-02, 3.19087482e-03, 0.,
          3.19568962e-01, 6.66442275e-01, 6.87136352e-01, 0., 0., 0., 0.,
          0., 0., 2.20969915e-01, 6.87136352e-01, 6.84393883e-01, 0., 0.,
          0., 0., 0., 0., 2.37440184e-01, 6.84393883e-01, 4.93249238e-01,
          0., 2.48000417e-02, 4.93249238e-01, 4.93249238e-01,
          4.27985471e-03, 0., 1.45811930e-01, 4.93249238e-01,
          4.92969811e-01, 0., 1.06062461e-02, 4.92969811e-01,
          4.92969811e-01, 0., 0., 1.51284084e-01, 4.92969811e-01,
          4.75624561e-01, 0., 2.57864781e-03, 4.62675393e-01,
          4.75624561e-01, 0., 0., 3.20184559e-01, 4.75624561e-01,
          4.74201739e-01, 4.12223876e-01, 0., 7.45349936e-03,
          4.74201739e-01, 3.88171583e-01, 6.25633460e-04, 0.,
          4.74201739e-01, 4.86503929e-01, 2.19409734e-01, 0.,
          1.57465898e-02, 4.86503929e-01, 4.86503929e-01, 2.83002597e-03,
          0., 4.86503929e-01, 4.82924193e-01, 2.47322723e-01, 0.,
          2.57855467e-02, 4.82924193e-01, 4.82924193e-01, 2.19111778e-02,
          0., 4.82924193e-01, 3.48643512e-01, 6.04515038e-02, 0.,
          2.06314530e-02, 6.53051555e-01, 6.53051555e-01, 6.78818161e-03,
          0., 1.21857025e-01, 1.38459221e-01, 5.30892238e-03, 0.,
          2.29725372e-02, 6.96789384e-01, 6.96789384e-01, 2.18570163e-03,
          0., 4.77679335e-02, 1.71541143e-02, 0., 0., 2.12866757e-02,
          7.03961074e-01, 7.03961074e-01, 3.02350000e-02, 0.,
          1.37385558e-02, 0., 0., 0., 0., 9.95024860e-01, 0., 0., 0., 0.,
          0., 0., 0., 0., 0., 0., 0., 0., 0., 0., 0., 0., 0., 0., 0., 0.,
          0., 0., 0., 0., 0., 0., 9.95024860e-01, 0., 0., 0., 0., 0., 0.,
          0., 0., 0., 0., 0., 0., 0., 0., 0., 0., 0., 0., 0., 0., 0., 0.,
          0., 0., 0., 0., 0., 0., 0., 0., 0., 0., 0., 0., 0., 0., 0., 0.,
          0., 0., 0., 0., 0., 0., 0., 0., 0., 0., 0., 0., 0., 0., 0., 0.,
          0., 0., 0., 0., 0., 0., 0., 0., 0., 0., 0., 0., 0., 0., 0., 0.,
          0., 0., 0., 0., 0., 0., 0., 0., 0., 0., 0., 0., 0., 0., 0., 0.,
          0., 0., 0., 0., 0., 0., 0., 0., 0., 0., 0., 0., 0., 0., 0., 0.,
          0., 0., 0., 0., 0., 0., 0., 0., 0., 0., 0., 0., 0., 0., 0., 0.,
          0., 0., 0., 0., 0., 0., 0., 0., 0., 0., 0., 0., 0., 0., 0., 0.,
          0., 0., 0., 0., 0., 0., 0., 0., 0., 0., 0., 0., 0., 0., 0., 0.,
          0., 0., 0., 0., 0., 0., 0., 0., 0., 0., 0., 0., 0., 0., 0., 0.,
          0., 0., 0., 0., 0., 0., 0., 0., 0., 0., 0., 0., 0., 0., 0., 0.,
          0., 0., 0., 0., 0., 0., 0., 0., 0., 0., 0., 0., 0., 0., 0., 0.,
          0., 0., 0., 0., 0., 0., 0., 0., 0., 0., 0., 0., 0., 0., 0., 0.,
          0., 0., 0., 0., 0., 0., 0., 0., 0., 0., 0., 0., 0., 0., 0., 0.,
          0., 0., 0., 0., 0., 0., 0., 0., 0., 0., 0., 0., 0., 0., 0., 0.,
          0., 0., 0., 0., 0., 0., 0., 0., 0., 0., 0., 0., 0., 0., 0., 0.,
          0., 0., 0., 6.84393883e-01, 0., 0., 0., 0., 0., 0.,
          2.37440184e-01, 6.84393883e-01, 7.04615593e-01, 0., 0., 0., 0.,
          0., 0., 0., 7.04615593e-01, 0., 0., 0., 0., 0., 0., 0., 0., 0.,
          4.75624561e-01, 0., 2.57864781e-03, 4.62675393e-01,
          4.75624561e-01, 0., 0., 3.20184559e-01, 4.75624561e-01,
          5.24396241e-01, 0., 3.85977095e-03, 2.82972217e-01,
          3.84148508e-01, 0., 0., 4.65963304e-01, 5.24396241e-01,
          5.72810590e-01, 0., 4.72406670e-03, 4.75312509e-02,
          8.75361115e-02, 0., 0., 5.72810590e-01, 5.72810590e-01 ]
      - [ 0., 0., 0., 0., 0., 0., 0., 0., 0., 5.75688422e-01,
          5.75688422e-01, 0., 0., 0., 0., 0., 0., 5.75688422e-01,
          5.73281169e-01, 5.73281169e-01, 3.46712805e-02, 1.03333602e-02,
          6.50088117e-02, 4.76647653e-02, 2.26839352e-02, 0.,
          5.73281169e-01, 6.82329476e-01, 6.82329476e-01, 1.25196904e-01,
          0., 1.94750912e-02, 1.52759314e-01, 1.10710459e-02, 0.,
          1.50099710e-01, 5.32831252e-01, 5.32831252e-01, 1.85214903e-03,
          0., 3.12379599e-01, 5.32831252e-01, 9.55589265e-02,
          8.65354948e-03, 1.90159127e-01, 4.80780929e-01, 4.77519214e-01,
          4.78223450e-02, 6.06999779e-03, 4.80780929e-01, 4.80780929e-01,
          1.44113988e-01, 4.16188240e-02, 2.21128151e-01, 4.42871869e-01,
          4.42871869e-01, 4.42871869e-01, 2.76890714e-02, 5.60155697e-03,
          4.42871869e-01, 4.42871869e-01, 1.18636616e-01, 5.09714102e-03,
          4.13659096e-01, 5.32519042e-01, 1.94303431e-02, 0.,
          2.75076717e-01, 5.32519042e-01, 4.21095669e-01, 5.49622178e-02,
          5.27691701e-03, 9.23619717e-02, 4.60504554e-02, 0., 0.,
          6.88899457e-01, 6.88899457e-01, 1.81302801e-01, 2.08182447e-02,
          1.55936903e-03, 4.42871869e-01, 4.42871869e-01, 4.42871869e-01,
          2.76890714e-02, 5.60155697e-03, 4.42871869e-01, 4.42871869e-01,
          1.18636616e-01, 5.09714102e-03, 4.13659096e-01, 5.32519042e-01,
          1.94303431e-02, 0., 2.75076717e-01, 5.32519042e-01,
          4.21095669e-01, 5.49622178e-02, 5.27691701e-03, 9.23619717e-02,
          4.60504554e-02, 0., 0., 6.88899457e-01, 6.88899457e-01,
          1.81302801e-01, 2.08182447e-02, 1.55936903e-03, 1.45408139e-02,
          4.32198822e-01, 4.32198822e-01, 4.32198822e-01, 5.89212403e-03,
          1.14330769e-01, 4.32198822e-01, 4.32198822e-01, 2.19968349e-01,
          1.11188747e-01, 4.73468378e-02, 2.13159680e-01, 3.53688926e-01,
          2.40203477e-02, 2.46993124e-01, 4.32757437e-01, 5.29487073e-01,
          5.29487073e-01, 5.75688422e-01, 0., 0., 0., 0., 0., 0.,
          5.75688422e-01, 5.75688422e-01, 0., 1.35625020e-01,
          5.87799191e-01, 5.87799191e-01, 4.29718733e-01, 1.80912651e-02,
          2.15776265e-02, 2.63198495e-01, 1.73194468e-01, 8.20977539e-02,
          1.58719830e-02, 1.88222781e-01, 4.88027304e-01, 4.88027304e-01,
          4.42343205e-03, 1.97967072e-03, 4.88027304e-01, 4.88027304e-01,
          2.91304678e-01, 0., 4.86834943e-02, 4.79942232e-01,
          4.65149909e-01, 1.90007698e-03, 2.40022670e-02, 4.79942232e-01,
          4.79942232e-01, 0., 1.35625020e-01, 5.87799191e-01,
          5.87799191e-01, 4.29718733e-01, 1.80912651e-02, 2.15776265e-02,
          2.63198495e-01, 1.73194468e-01, 8.20977539e-02, 1.58719830e-02,
          1.88222781e-01, 4.88027304e-01, 4.88027304e-01, 4.42343205e-03,
          1.97967072e-03, 4.88027304e-01, 4.88027304e-01, 2.91304678e-01,
          0., 4.86834943e-02, 4.79942232e-01, 4.65149909e-01,
          1.90007698e-03, 2.40022670e-02, 4.79942232e-01, 4.79942232e-01,
          0., 0., 9.47232917e-02, 7.01436222e-01, 7.01436222e-01, 0., 0.,
          0., 0., 9.85128433e-03, 0., 1.79222599e-01, 6.91458106e-01,
          6.91458106e-01, 0., 0., 1.63118150e-02, 6.62191212e-02,
          5.92606179e-02, 0., 1.06796063e-01, 6.10690773e-01,
          6.10690773e-01, 6.93032471e-03, 3.46894115e-02, 1.84154093e-01,
          4.44898516e-01, 0., 0., 0., 0., 0., 0., 0., 0., 0.,
          6.06965899e-01, 6.06965899e-01, 0., 0., 0., 0., 0., 0.,
          5.07074416e-01, 5.70354640e-01, 5.70354640e-01, 2.27160119e-02,
          2.78629474e-02, 1.20074295e-01, 4.15040590e-02, 3.09631396e-02,
          0., 5.70354640e-01, 0., 0., 0., 0., 0., 0., 0., 0., 0.,
          6.06965899e-01, 6.06965899e-01, 0., 0., 0., 0., 0., 0.,
          5.07074416e-01, 5.70354640e-01, 5.70354640e-01, 2.27160119e-02,
          2.78629474e-02, 1.20074295e-01, 4.15040590e-02, 3.09631396e-02,
          0., 5.70354640e-01, 6.74710572e-01, 6.74710572e-01,
          8.34453106e-02, 0., 7.07514882e-02, 1.29164860e-01,
          3.42077552e-03, 2.02304721e-02, 2.31780246e-01, 5.29705465e-01,
          5.29705465e-01, 7.01644411e-03, 0., 3.06734502e-01,
          5.29705465e-01, 3.28236632e-02, 5.01104295e-02, 2.34995052e-01,
          4.85981077e-01, 4.85981077e-01, 2.46019941e-02, 4.88828495e-03,
          4.85981077e-01, 4.85981077e-01, 9.16831493e-02, 5.75396158e-02,
          1.95166588e-01, 4.02636141e-01, 4.02636141e-01, 4.02636141e-01,
          4.02636141e-01, 1.34863615e-01, 3.33956301e-01, 3.54885072e-01,
          2.39789516e-01, 1.85355633e-01, 4.07561153e-01, 3.39412987e-01,
          2.44457293e-02, 1.13444880e-01, 4.07561153e-01, 4.07561153e-01,
          2.25106910e-01, 3.90080214e-01, 4.07561153e-01, 2.68567920e-01,
          6.41412288e-02, 3.48030427e-03, 0., 5.18943906e-01,
          5.18943906e-01, 7.43621960e-02, 3.24228942e-01, 5.18943906e-01,
          4.02636141e-01, 4.02636141e-01, 4.02636141e-01, 4.02636141e-01,
          1.34863615e-01, 3.33956301e-01, 3.54885072e-01, 2.39789516e-01,
          1.85355633e-01, 4.07561153e-01, 3.39412987e-01, 2.44457293e-02,
          1.13444880e-01, 4.07561153e-01, 4.07561153e-01, 2.25106910e-01,
          3.90080214e-01, 4.07561153e-01, 2.68567920e-01, 6.41412288e-02,
          3.48030427e-03, 0., 5.18943906e-01, 5.18943906e-01,
          7.43621960e-02, 3.24228942e-01, 5.18943906e-01, 2.84650940e-02,
          1.62411481e-01, 5.47520518e-01, 5.55927157e-01, 5.25651932e-01,
          3.19003947e-02, 1.03874996e-01, 1.69738129e-01, 2.03711435e-01,
          1.49010018e-01, 2.74056033e-03, 8.01179484e-02, 5.01253426e-01,
          5.01253426e-01, 2.12524123e-02, 2.63773184e-02, 4.59838063e-01,
          5.01253426e-01, 3.08222592e-01, 6.44959928e-03, 4.53022346e-02,
          4.73762959e-01, 4.73762959e-01, 1.64142821e-03, 1.91058703e-02,
          4.73762959e-01, 4.73762959e-01, 0., 0., 1.45636313e-02,
          7.04540610e-01, 7.04540610e-01, 0., 0., 0., 0., 9.83819552e-03,
          0., 1.35975555e-01, 6.96462095e-01, 6.96462095e-01, 0., 0.,
          1.98662616e-02, 6.28320873e-02, 5.84274828e-02, 9.31942463e-03,
          1.02477580e-01, 6.16874933e-01, 6.16874933e-01, 5.68619510e-03,
          2.76072547e-02, 1.30494058e-01, 4.48269814e-01, 5.73281169e-01,
          5.73281169e-01, 3.46712805e-02, 1.03333602e-02, 6.50088117e-02,
          4.76647653e-02, 2.26839352e-02, 0., 5.73281169e-01,
          4.96288538e-01, 4.96288538e-01, 1.17966142e-02, 8.51837732e-03,
          4.08337235e-01, 2.98507124e-01, 8.87969136e-03, 0.,
          4.96288538e-01, 4.47608083e-01, 4.40409452e-01, 3.62812512e-04,
          1.24830250e-02, 4.47608083e-01, 4.47608083e-01, 6.61495782e-04,
          0., 4.47608083e-01, 4.80780929e-01, 4.77519214e-01,
          4.78223450e-02, 6.06999779e-03, 4.80780929e-01, 4.80780929e-01,
          1.44113988e-01, 4.16188240e-02, 2.21128151e-01, 5.55524647e-01,
          1.70531735e-01, 2.13877726e-02, 1.53796682e-02, 5.55524647e-01,
          5.55524647e-01, 8.46337900e-02, 0., 1.78021714e-01,
          3.86045724e-01, 8.98011848e-02, 5.24978910e-04, 6.20637834e-03,
          6.36455297e-01, 6.36455297e-01, 6.16168790e-03, 0.,
          1.62242442e-01, 9.23619717e-02, 4.60504554e-02, 0., 0.,
          6.88899457e-01, 6.88899457e-01, 1.81302801e-01, 2.08182447e-02,
          1.55936903e-03, 0., 0., 0., 0., 7.00633407e-01, 7.00633407e-01,
          1.05980113e-01, 0., 0., 0., 0., 0., 0., 9.93395925e-01, 0., 0.,
          0., 0., 9.23619717e-02, 4.60504554e-02, 0., 0., 6.88899457e-01,
          6.88899457e-01, 1.81302801e-01, 2.08182447e-02, 1.55936903e-03,
